digraph Tree {
node [shape=box] ;
0 [label="X[19] <= 5087.65\ngini = 0.2\nsamples = 41188\nvalue = [36548, 4640]"] ;
1 [label="X[10] <= 172.5\ngini = 0.494\nsamples = 4964\nvalue = [2755, 2209]"] ;
0 -> 1 [labeldistance=2.5, labelangle=45, headlabel="True"] ;
2 [label="X[14] <= 1.5\ngini = 0.287\nsamples = 1891\nvalue = [1563, 328]"] ;
1 -> 2 ;
3 [label="X[10] <= 123.5\ngini = 0.228\nsamples = 1605\nvalue = [1394, 211]"] ;
2 -> 3 ;
4 [label="X[10] <= 77.5\ngini = 0.126\nsamples = 991\nvalue = [924, 67]"] ;
3 -> 4 ;
5 [label="X[18] <= 1.264\ngini = 0.016\nsamples = 373\nvalue = [370, 3]"] ;
4 -> 5 ;
6 [label="X[15] <= -3.2\ngini = 0.011\nsamples = 359\nvalue = [357, 2]"] ;
5 -> 6 ;
7 [label="X[9] <= 2.5\ngini = 0.055\nsamples = 71\nvalue = [69, 2]"] ;
6 -> 7 ;
8 [label="gini = 0.0\nsamples = 45\nvalue = [45, 0]"] ;
7 -> 8 ;
9 [label="X[5] <= 0.5\ngini = 0.142\nsamples = 26\nvalue = [24, 2]"] ;
7 -> 9 ;
10 [label="X[0] <= 43.5\ngini = 0.408\nsamples = 7\nvalue = [5, 2]"] ;
9 -> 10 ;
11 [label="gini = 0.0\nsamples = 2\nvalue = [0, 2]"] ;
10 -> 11 ;
12 [label="gini = 0.0\nsamples = 5\nvalue = [5, 0]"] ;
10 -> 12 ;
13 [label="gini = 0.0\nsamples = 19\nvalue = [19, 0]"] ;
9 -> 13 ;
14 [label="gini = 0.0\nsamples = 288\nvalue = [288, 0]"] ;
6 -> 14 ;
15 [label="X[10] <= 68.0\ngini = 0.133\nsamples = 14\nvalue = [13, 1]"] ;
5 -> 15 ;
16 [label="gini = 0.0\nsamples = 9\nvalue = [9, 0]"] ;
15 -> 16 ;
17 [label="X[10] <= 69.5\ngini = 0.32\nsamples = 5\nvalue = [4, 1]"] ;
15 -> 17 ;
18 [label="gini = 0.0\nsamples = 1\nvalue = [0, 1]"] ;
17 -> 18 ;
19 [label="gini = 0.0\nsamples = 4\nvalue = [4, 0]"] ;
17 -> 19 ;
20 [label="X[13] <= 1.5\ngini = 0.186\nsamples = 618\nvalue = [554, 64]"] ;
4 -> 20 ;
21 [label="X[18] <= 0.635\ngini = 0.207\nsamples = 546\nvalue = [482, 64]"] ;
20 -> 21 ;
22 [label="X[11] <= 2.5\ngini = 0.444\nsamples = 3\nvalue = [1, 2]"] ;
21 -> 22 ;
23 [label="gini = 0.0\nsamples = 2\nvalue = [0, 2]"] ;
22 -> 23 ;
24 [label="gini = 0.0\nsamples = 1\nvalue = [1, 0]"] ;
22 -> 24 ;
25 [label="X[17] <= -30.75\ngini = 0.202\nsamples = 543\nvalue = [481, 62]"] ;
21 -> 25 ;
26 [label="X[18] <= 0.893\ngini = 0.17\nsamples = 384\nvalue = [348, 36]"] ;
25 -> 26 ;
27 [label="X[3] <= 5.5\ngini = 0.111\nsamples = 204\nvalue = [192, 12]"] ;
26 -> 27 ;
28 [label="X[10] <= 79.5\ngini = 0.194\nsamples = 92\nvalue = [82, 10]"] ;
27 -> 28 ;
29 [label="X[0] <= 26.5\ngini = 0.5\nsamples = 4\nvalue = [2, 2]"] ;
28 -> 29 ;
30 [label="gini = 0.0\nsamples = 2\nvalue = [2, 0]"] ;
29 -> 30 ;
31 [label="gini = 0.0\nsamples = 2\nvalue = [0, 2]"] ;
29 -> 31 ;
32 [label="X[9] <= 0.5\ngini = 0.165\nsamples = 88\nvalue = [80, 8]"] ;
28 -> 32 ;
33 [label="X[3] <= 2.5\ngini = 0.346\nsamples = 18\nvalue = [14, 4]"] ;
32 -> 33 ;
34 [label="gini = 0.0\nsamples = 7\nvalue = [7, 0]"] ;
33 -> 34 ;
35 [label="X[10] <= 102.5\ngini = 0.463\nsamples = 11\nvalue = [7, 4]"] ;
33 -> 35 ;
36 [label="gini = 0.0\nsamples = 3\nvalue = [0, 3]"] ;
35 -> 36 ;
37 [label="X[18] <= 0.667\ngini = 0.219\nsamples = 8\nvalue = [7, 1]"] ;
35 -> 37 ;
38 [label="gini = 0.0\nsamples = 1\nvalue = [0, 1]"] ;
37 -> 38 ;
39 [label="gini = 0.0\nsamples = 7\nvalue = [7, 0]"] ;
37 -> 39 ;
40 [label="X[4] <= 0.5\ngini = 0.108\nsamples = 70\nvalue = [66, 4]"] ;
32 -> 40 ;
41 [label="X[8] <= 4.5\ngini = 0.083\nsamples = 69\nvalue = [66, 3]"] ;
40 -> 41 ;
42 [label="X[3] <= 4.0\ngini = 0.035\nsamples = 56\nvalue = [55, 1]"] ;
41 -> 42 ;
43 [label="gini = 0.0\nsamples = 43\nvalue = [43, 0]"] ;
42 -> 43 ;
44 [label="X[10] <= 90.0\ngini = 0.142\nsamples = 13\nvalue = [12, 1]"] ;
42 -> 44 ;
45 [label="X[8] <= 1.5\ngini = 0.444\nsamples = 3\nvalue = [2, 1]"] ;
44 -> 45 ;
46 [label="gini = 0.0\nsamples = 1\nvalue = [0, 1]"] ;
45 -> 46 ;
47 [label="gini = 0.0\nsamples = 2\nvalue = [2, 0]"] ;
45 -> 47 ;
48 [label="gini = 0.0\nsamples = 10\nvalue = [10, 0]"] ;
44 -> 48 ;
49 [label="X[10] <= 94.5\ngini = 0.26\nsamples = 13\nvalue = [11, 2]"] ;
41 -> 49 ;
50 [label="gini = 0.0\nsamples = 1\nvalue = [0, 1]"] ;
49 -> 50 ;
51 [label="X[9] <= 3.5\ngini = 0.153\nsamples = 12\nvalue = [11, 1]"] ;
49 -> 51 ;
52 [label="gini = 0.0\nsamples = 10\nvalue = [10, 0]"] ;
51 -> 52 ;
53 [label="X[18] <= 0.653\ngini = 0.5\nsamples = 2\nvalue = [1, 1]"] ;
51 -> 53 ;
54 [label="gini = 0.0\nsamples = 1\nvalue = [0, 1]"] ;
53 -> 54 ;
55 [label="gini = 0.0\nsamples = 1\nvalue = [1, 0]"] ;
53 -> 55 ;
56 [label="gini = 0.0\nsamples = 1\nvalue = [0, 1]"] ;
40 -> 56 ;
57 [label="X[0] <= 77.0\ngini = 0.035\nsamples = 112\nvalue = [110, 2]"] ;
27 -> 57 ;
58 [label="X[0] <= 61.5\ngini = 0.018\nsamples = 110\nvalue = [109, 1]"] ;
57 -> 58 ;
59 [label="gini = 0.0\nsamples = 102\nvalue = [102, 0]"] ;
58 -> 59 ;
60 [label="X[10] <= 115.0\ngini = 0.219\nsamples = 8\nvalue = [7, 1]"] ;
58 -> 60 ;
61 [label="gini = 0.0\nsamples = 7\nvalue = [7, 0]"] ;
60 -> 61 ;
62 [label="gini = 0.0\nsamples = 1\nvalue = [0, 1]"] ;
60 -> 62 ;
63 [label="X[0] <= 78.5\ngini = 0.5\nsamples = 2\nvalue = [1, 1]"] ;
57 -> 63 ;
64 [label="gini = 0.0\nsamples = 1\nvalue = [0, 1]"] ;
63 -> 64 ;
65 [label="gini = 0.0\nsamples = 1\nvalue = [1, 0]"] ;
63 -> 65 ;
66 [label="X[11] <= 6.5\ngini = 0.231\nsamples = 180\nvalue = [156, 24]"] ;
26 -> 66 ;
67 [label="X[1] <= 5.5\ngini = 0.224\nsamples = 179\nvalue = [156, 23]"] ;
66 -> 67 ;
68 [label="X[18] <= 0.911\ngini = 0.276\nsamples = 109\nvalue = [91, 18]"] ;
67 -> 68 ;
69 [label="X[9] <= 2.5\ngini = 0.469\nsamples = 8\nvalue = [5, 3]"] ;
68 -> 69 ;
70 [label="gini = 0.0\nsamples = 4\nvalue = [4, 0]"] ;
69 -> 70 ;
71 [label="X[0] <= 63.5\ngini = 0.375\nsamples = 4\nvalue = [1, 3]"] ;
69 -> 71 ;
72 [label="gini = 0.0\nsamples = 3\nvalue = [0, 3]"] ;
71 -> 72 ;
73 [label="gini = 0.0\nsamples = 1\nvalue = [1, 0]"] ;
71 -> 73 ;
74 [label="X[0] <= 32.5\ngini = 0.253\nsamples = 101\nvalue = [86, 15]"] ;
68 -> 74 ;
75 [label="X[0] <= 31.5\ngini = 0.346\nsamples = 36\nvalue = [28, 8]"] ;
74 -> 75 ;
76 [label="X[8] <= 3.5\ngini = 0.238\nsamples = 29\nvalue = [25, 4]"] ;
75 -> 76 ;
77 [label="gini = 0.0\nsamples = 1\nvalue = [0, 1]"] ;
76 -> 77 ;
78 [label="X[10] <= 90.5\ngini = 0.191\nsamples = 28\nvalue = [25, 3]"] ;
76 -> 78 ;
79 [label="X[6] <= 1.0\ngini = 0.444\nsamples = 6\nvalue = [4, 2]"] ;
78 -> 79 ;
80 [label="X[0] <= 30.5\ngini = 0.32\nsamples = 5\nvalue = [4, 1]"] ;
79 -> 80 ;
81 [label="gini = 0.0\nsamples = 4\nvalue = [4, 0]"] ;
80 -> 81 ;
82 [label="gini = 0.0\nsamples = 1\nvalue = [0, 1]"] ;
80 -> 82 ;
83 [label="gini = 0.0\nsamples = 1\nvalue = [0, 1]"] ;
79 -> 83 ;
84 [label="X[10] <= 113.5\ngini = 0.087\nsamples = 22\nvalue = [21, 1]"] ;
78 -> 84 ;
85 [label="gini = 0.0\nsamples = 18\nvalue = [18, 0]"] ;
84 -> 85 ;
86 [label="X[18] <= 1.263\ngini = 0.375\nsamples = 4\nvalue = [3, 1]"] ;
84 -> 86 ;
87 [label="gini = 0.0\nsamples = 3\nvalue = [3, 0]"] ;
86 -> 87 ;
88 [label="gini = 0.0\nsamples = 1\nvalue = [0, 1]"] ;
86 -> 88 ;
89 [label="X[10] <= 104.0\ngini = 0.49\nsamples = 7\nvalue = [3, 4]"] ;
75 -> 89 ;
90 [label="gini = 0.0\nsamples = 4\nvalue = [0, 4]"] ;
89 -> 90 ;
91 [label="gini = 0.0\nsamples = 3\nvalue = [3, 0]"] ;
89 -> 91 ;
92 [label="X[10] <= 106.5\ngini = 0.192\nsamples = 65\nvalue = [58, 7]"] ;
74 -> 92 ;
93 [label="X[2] <= 1.5\ngini = 0.053\nsamples = 37\nvalue = [36, 1]"] ;
92 -> 93 ;
94 [label="gini = 0.0\nsamples = 28\nvalue = [28, 0]"] ;
93 -> 94 ;
95 [label="X[11] <= 1.5\ngini = 0.198\nsamples = 9\nvalue = [8, 1]"] ;
93 -> 95 ;
96 [label="X[5] <= 1.0\ngini = 0.444\nsamples = 3\nvalue = [2, 1]"] ;
95 -> 96 ;
97 [label="gini = 0.0\nsamples = 2\nvalue = [2, 0]"] ;
96 -> 97 ;
98 [label="gini = 0.0\nsamples = 1\nvalue = [0, 1]"] ;
96 -> 98 ;
99 [label="gini = 0.0\nsamples = 6\nvalue = [6, 0]"] ;
95 -> 99 ;
100 [label="X[3] <= 0.5\ngini = 0.337\nsamples = 28\nvalue = [22, 6]"] ;
92 -> 100 ;
101 [label="X[10] <= 110.5\ngini = 0.444\nsamples = 3\nvalue = [1, 2]"] ;
100 -> 101 ;
102 [label="gini = 0.0\nsamples = 2\nvalue = [0, 2]"] ;
101 -> 102 ;
103 [label="gini = 0.0\nsamples = 1\nvalue = [1, 0]"] ;
101 -> 103 ;
104 [label="X[11] <= 3.5\ngini = 0.269\nsamples = 25\nvalue = [21, 4]"] ;
100 -> 104 ;
105 [label="X[3] <= 6.5\ngini = 0.219\nsamples = 24\nvalue = [21, 3]"] ;
104 -> 105 ;
106 [label="X[1] <= 3.0\ngini = 0.159\nsamples = 23\nvalue = [21, 2]"] ;
105 -> 106 ;
107 [label="gini = 0.0\nsamples = 16\nvalue = [16, 0]"] ;
106 -> 107 ;
108 [label="X[9] <= 2.5\ngini = 0.408\nsamples = 7\nvalue = [5, 2]"] ;
106 -> 108 ;
109 [label="gini = 0.0\nsamples = 4\nvalue = [4, 0]"] ;
108 -> 109 ;
110 [label="X[17] <= -37.2\ngini = 0.444\nsamples = 3\nvalue = [1, 2]"] ;
108 -> 110 ;
111 [label="gini = 0.0\nsamples = 2\nvalue = [0, 2]"] ;
110 -> 111 ;
112 [label="gini = 0.0\nsamples = 1\nvalue = [1, 0]"] ;
110 -> 112 ;
113 [label="gini = 0.0\nsamples = 1\nvalue = [0, 1]"] ;
105 -> 113 ;
114 [label="gini = 0.0\nsamples = 1\nvalue = [0, 1]"] ;
104 -> 114 ;
115 [label="X[3] <= 2.5\ngini = 0.133\nsamples = 70\nvalue = [65, 5]"] ;
67 -> 115 ;
116 [label="X[0] <= 38.5\ngini = 0.49\nsamples = 7\nvalue = [4, 3]"] ;
115 -> 116 ;
117 [label="X[9] <= 3.5\ngini = 0.375\nsamples = 4\nvalue = [1, 3]"] ;
116 -> 117 ;
118 [label="gini = 0.0\nsamples = 3\nvalue = [0, 3]"] ;
117 -> 118 ;
119 [label="gini = 0.0\nsamples = 1\nvalue = [1, 0]"] ;
117 -> 119 ;
120 [label="gini = 0.0\nsamples = 3\nvalue = [3, 0]"] ;
116 -> 120 ;
121 [label="X[2] <= 0.5\ngini = 0.061\nsamples = 63\nvalue = [61, 2]"] ;
115 -> 121 ;
122 [label="gini = 0.0\nsamples = 1\nvalue = [0, 1]"] ;
121 -> 122 ;
123 [label="X[17] <= -50.15\ngini = 0.032\nsamples = 62\nvalue = [61, 1]"] ;
121 -> 123 ;
124 [label="X[0] <= 28.5\ngini = 0.5\nsamples = 2\nvalue = [1, 1]"] ;
123 -> 124 ;
125 [label="gini = 0.0\nsamples = 1\nvalue = [1, 0]"] ;
124 -> 125 ;
126 [label="gini = 0.0\nsamples = 1\nvalue = [0, 1]"] ;
124 -> 126 ;
127 [label="gini = 0.0\nsamples = 60\nvalue = [60, 0]"] ;
123 -> 127 ;
128 [label="gini = 0.0\nsamples = 1\nvalue = [0, 1]"] ;
66 -> 128 ;
129 [label="X[0] <= 25.5\ngini = 0.274\nsamples = 159\nvalue = [133, 26]"] ;
25 -> 129 ;
130 [label="X[14] <= 0.5\ngini = 0.48\nsamples = 15\nvalue = [9, 6]"] ;
129 -> 130 ;
131 [label="gini = 0.0\nsamples = 3\nvalue = [0, 3]"] ;
130 -> 131 ;
132 [label="X[10] <= 93.0\ngini = 0.375\nsamples = 12\nvalue = [9, 3]"] ;
130 -> 132 ;
133 [label="gini = 0.0\nsamples = 4\nvalue = [4, 0]"] ;
132 -> 133 ;
134 [label="X[10] <= 113.5\ngini = 0.469\nsamples = 8\nvalue = [5, 3]"] ;
132 -> 134 ;
135 [label="X[16] <= 92.54\ngini = 0.48\nsamples = 5\nvalue = [2, 3]"] ;
134 -> 135 ;
136 [label="gini = 0.0\nsamples = 2\nvalue = [0, 2]"] ;
135 -> 136 ;
137 [label="X[11] <= 2.5\ngini = 0.444\nsamples = 3\nvalue = [2, 1]"] ;
135 -> 137 ;
138 [label="gini = 0.0\nsamples = 2\nvalue = [2, 0]"] ;
137 -> 138 ;
139 [label="gini = 0.0\nsamples = 1\nvalue = [0, 1]"] ;
137 -> 139 ;
140 [label="gini = 0.0\nsamples = 3\nvalue = [3, 0]"] ;
134 -> 140 ;
141 [label="X[2] <= 1.5\ngini = 0.239\nsamples = 144\nvalue = [124, 20]"] ;
129 -> 141 ;
142 [label="X[1] <= 4.5\ngini = 0.177\nsamples = 102\nvalue = [92, 10]"] ;
141 -> 142 ;
143 [label="X[10] <= 84.5\ngini = 0.097\nsamples = 59\nvalue = [56, 3]"] ;
142 -> 143 ;
144 [label="X[18] <= 0.742\ngini = 0.397\nsamples = 11\nvalue = [8, 3]"] ;
143 -> 144 ;
145 [label="gini = 0.0\nsamples = 6\nvalue = [6, 0]"] ;
144 -> 145 ;
146 [label="X[4] <= 0.5\ngini = 0.48\nsamples = 5\nvalue = [2, 3]"] ;
144 -> 146 ;
147 [label="X[8] <= 8.5\ngini = 0.375\nsamples = 4\nvalue = [1, 3]"] ;
146 -> 147 ;
148 [label="X[9] <= 1.5\ngini = 0.5\nsamples = 2\nvalue = [1, 1]"] ;
147 -> 148 ;
149 [label="gini = 0.0\nsamples = 1\nvalue = [0, 1]"] ;
148 -> 149 ;
150 [label="gini = 0.0\nsamples = 1\nvalue = [1, 0]"] ;
148 -> 150 ;
151 [label="gini = 0.0\nsamples = 2\nvalue = [0, 2]"] ;
147 -> 151 ;
152 [label="gini = 0.0\nsamples = 1\nvalue = [1, 0]"] ;
146 -> 152 ;
153 [label="gini = 0.0\nsamples = 48\nvalue = [48, 0]"] ;
143 -> 153 ;
154 [label="X[0] <= 71.5\ngini = 0.273\nsamples = 43\nvalue = [36, 7]"] ;
142 -> 154 ;
155 [label="X[18] <= 0.74\ngini = 0.366\nsamples = 29\nvalue = [22, 7]"] ;
154 -> 155 ;
156 [label="X[0] <= 59.0\ngini = 0.5\nsamples = 10\nvalue = [5, 5]"] ;
155 -> 156 ;
157 [label="gini = 0.0\nsamples = 3\nvalue = [3, 0]"] ;
156 -> 157 ;
158 [label="X[6] <= 1.0\ngini = 0.408\nsamples = 7\nvalue = [2, 5]"] ;
156 -> 158 ;
159 [label="X[10] <= 89.0\ngini = 0.278\nsamples = 6\nvalue = [1, 5]"] ;
158 -> 159 ;
160 [label="gini = 0.0\nsamples = 1\nvalue = [1, 0]"] ;
159 -> 160 ;
161 [label="gini = 0.0\nsamples = 5\nvalue = [0, 5]"] ;
159 -> 161 ;
162 [label="gini = 0.0\nsamples = 1\nvalue = [1, 0]"] ;
158 -> 162 ;
163 [label="X[6] <= 1.0\ngini = 0.188\nsamples = 19\nvalue = [17, 2]"] ;
155 -> 163 ;
164 [label="gini = 0.0\nsamples = 15\nvalue = [15, 0]"] ;
163 -> 164 ;
165 [label="X[0] <= 44.5\ngini = 0.5\nsamples = 4\nvalue = [2, 2]"] ;
163 -> 165 ;
166 [label="gini = 0.0\nsamples = 2\nvalue = [0, 2]"] ;
165 -> 166 ;
167 [label="gini = 0.0\nsamples = 2\nvalue = [2, 0]"] ;
165 -> 167 ;
168 [label="gini = 0.0\nsamples = 14\nvalue = [14, 0]"] ;
154 -> 168 ;
169 [label="X[18] <= 0.729\ngini = 0.363\nsamples = 42\nvalue = [32, 10]"] ;
141 -> 169 ;
170 [label="X[11] <= 1.5\ngini = 0.5\nsamples = 12\nvalue = [6, 6]"] ;
169 -> 170 ;
171 [label="X[1] <= 10.0\ngini = 0.278\nsamples = 6\nvalue = [1, 5]"] ;
170 -> 171 ;
172 [label="gini = 0.0\nsamples = 5\nvalue = [0, 5]"] ;
171 -> 172 ;
173 [label="gini = 0.0\nsamples = 1\nvalue = [1, 0]"] ;
171 -> 173 ;
174 [label="X[3] <= 4.5\ngini = 0.278\nsamples = 6\nvalue = [5, 1]"] ;
170 -> 174 ;
175 [label="gini = 0.0\nsamples = 1\nvalue = [0, 1]"] ;
174 -> 175 ;
176 [label="gini = 0.0\nsamples = 5\nvalue = [5, 0]"] ;
174 -> 176 ;
177 [label="X[10] <= 108.5\ngini = 0.231\nsamples = 30\nvalue = [26, 4]"] ;
169 -> 177 ;
178 [label="X[10] <= 99.5\ngini = 0.332\nsamples = 19\nvalue = [15, 4]"] ;
177 -> 178 ;
179 [label="X[10] <= 79.5\ngini = 0.133\nsamples = 14\nvalue = [13, 1]"] ;
178 -> 179 ;
180 [label="X[11] <= 1.5\ngini = 0.5\nsamples = 2\nvalue = [1, 1]"] ;
179 -> 180 ;
181 [label="gini = 0.0\nsamples = 1\nvalue = [1, 0]"] ;
180 -> 181 ;
182 [label="gini = 0.0\nsamples = 1\nvalue = [0, 1]"] ;
180 -> 182 ;
183 [label="gini = 0.0\nsamples = 12\nvalue = [12, 0]"] ;
179 -> 183 ;
184 [label="X[0] <= 34.5\ngini = 0.48\nsamples = 5\nvalue = [2, 3]"] ;
178 -> 184 ;
185 [label="X[10] <= 106.0\ngini = 0.444\nsamples = 3\nvalue = [2, 1]"] ;
184 -> 185 ;
186 [label="gini = 0.0\nsamples = 2\nvalue = [2, 0]"] ;
185 -> 186 ;
187 [label="gini = 0.0\nsamples = 1\nvalue = [0, 1]"] ;
185 -> 187 ;
188 [label="gini = 0.0\nsamples = 2\nvalue = [0, 2]"] ;
184 -> 188 ;
189 [label="gini = 0.0\nsamples = 11\nvalue = [11, 0]"] ;
177 -> 189 ;
190 [label="gini = 0.0\nsamples = 72\nvalue = [72, 0]"] ;
20 -> 190 ;
191 [label="X[16] <= 93.951\ngini = 0.359\nsamples = 614\nvalue = [470, 144]"] ;
3 -> 191 ;
192 [label="X[0] <= 65.5\ngini = 0.4\nsamples = 489\nvalue = [354, 135]"] ;
191 -> 192 ;
193 [label="X[0] <= 22.5\ngini = 0.379\nsamples = 433\nvalue = [323, 110]"] ;
192 -> 193 ;
194 [label="X[13] <= 0.5\ngini = 0.48\nsamples = 15\nvalue = [6, 9]"] ;
193 -> 194 ;
195 [label="X[11] <= 4.0\ngini = 0.444\nsamples = 9\nvalue = [6, 3]"] ;
194 -> 195 ;
196 [label="X[18] <= 0.735\ngini = 0.375\nsamples = 8\nvalue = [6, 2]"] ;
195 -> 196 ;
197 [label="gini = 0.0\nsamples = 1\nvalue = [0, 1]"] ;
196 -> 197 ;
198 [label="X[6] <= 1.0\ngini = 0.245\nsamples = 7\nvalue = [6, 1]"] ;
196 -> 198 ;
199 [label="gini = 0.0\nsamples = 5\nvalue = [5, 0]"] ;
198 -> 199 ;
200 [label="X[17] <= -33.85\ngini = 0.5\nsamples = 2\nvalue = [1, 1]"] ;
198 -> 200 ;
201 [label="gini = 0.0\nsamples = 1\nvalue = [0, 1]"] ;
200 -> 201 ;
202 [label="gini = 0.0\nsamples = 1\nvalue = [1, 0]"] ;
200 -> 202 ;
203 [label="gini = 0.0\nsamples = 1\nvalue = [0, 1]"] ;
195 -> 203 ;
204 [label="gini = 0.0\nsamples = 6\nvalue = [0, 6]"] ;
194 -> 204 ;
205 [label="X[12] <= 11.5\ngini = 0.366\nsamples = 418\nvalue = [317, 101]"] ;
193 -> 205 ;
206 [label="X[0] <= 38.5\ngini = 0.444\nsamples = 9\nvalue = [3, 6]"] ;
205 -> 206 ;
207 [label="gini = 0.0\nsamples = 4\nvalue = [0, 4]"] ;
206 -> 207 ;
208 [label="X[8] <= 7.5\ngini = 0.48\nsamples = 5\nvalue = [3, 2]"] ;
206 -> 208 ;
209 [label="X[9] <= 3.5\ngini = 0.444\nsamples = 3\nvalue = [1, 2]"] ;
208 -> 209 ;
210 [label="gini = 0.0\nsamples = 2\nvalue = [0, 2]"] ;
209 -> 210 ;
211 [label="gini = 0.0\nsamples = 1\nvalue = [1, 0]"] ;
209 -> 211 ;
212 [label="gini = 0.0\nsamples = 2\nvalue = [2, 0]"] ;
208 -> 212 ;
213 [label="X[7] <= 0.5\ngini = 0.357\nsamples = 409\nvalue = [314, 95]"] ;
205 -> 213 ;
214 [label="X[17] <= -28.35\ngini = 0.376\nsamples = 366\nvalue = [274, 92]"] ;
213 -> 214 ;
215 [label="X[10] <= 158.5\ngini = 0.355\nsamples = 321\nvalue = [247, 74]"] ;
214 -> 215 ;
216 [label="X[6] <= 0.5\ngini = 0.32\nsamples = 240\nvalue = [192, 48]"] ;
215 -> 216 ;
217 [label="X[1] <= 9.5\ngini = 0.345\nsamples = 194\nvalue = [151, 43]"] ;
216 -> 217 ;
218 [label="X[13] <= 0.5\ngini = 0.358\nsamples = 180\nvalue = [138, 42]"] ;
217 -> 218 ;
219 [label="X[18] <= 0.655\ngini = 0.397\nsamples = 110\nvalue = [80, 30]"] ;
218 -> 219 ;
220 [label="X[0] <= 41.0\ngini = 0.494\nsamples = 9\nvalue = [4, 5]"] ;
219 -> 220 ;
221 [label="X[18] <= 0.644\ngini = 0.444\nsamples = 6\nvalue = [4, 2]"] ;
220 -> 221 ;
222 [label="gini = 0.0\nsamples = 3\nvalue = [3, 0]"] ;
221 -> 222 ;
223 [label="X[11] <= 2.5\ngini = 0.444\nsamples = 3\nvalue = [1, 2]"] ;
221 -> 223 ;
224 [label="gini = 0.0\nsamples = 2\nvalue = [0, 2]"] ;
223 -> 224 ;
225 [label="gini = 0.0\nsamples = 1\nvalue = [1, 0]"] ;
223 -> 225 ;
226 [label="gini = 0.0\nsamples = 3\nvalue = [0, 3]"] ;
220 -> 226 ;
227 [label="X[0] <= 40.5\ngini = 0.373\nsamples = 101\nvalue = [76, 25]"] ;
219 -> 227 ;
228 [label="X[16] <= 92.559\ngini = 0.441\nsamples = 58\nvalue = [39, 19]"] ;
227 -> 228 ;
229 [label="X[5] <= 1.0\ngini = 0.497\nsamples = 24\nvalue = [13, 11]"] ;
228 -> 229 ;
230 [label="X[18] <= 0.88\ngini = 0.198\nsamples = 9\nvalue = [8, 1]"] ;
229 -> 230 ;
231 [label="gini = 0.0\nsamples = 7\nvalue = [7, 0]"] ;
230 -> 231 ;
232 [label="X[0] <= 30.0\ngini = 0.5\nsamples = 2\nvalue = [1, 1]"] ;
230 -> 232 ;
233 [label="gini = 0.0\nsamples = 1\nvalue = [0, 1]"] ;
232 -> 233 ;
234 [label="gini = 0.0\nsamples = 1\nvalue = [1, 0]"] ;
232 -> 234 ;
235 [label="X[1] <= 3.0\ngini = 0.444\nsamples = 15\nvalue = [5, 10]"] ;
229 -> 235 ;
236 [label="X[9] <= 1.5\ngini = 0.5\nsamples = 10\nvalue = [5, 5]"] ;
235 -> 236 ;
237 [label="gini = 0.0\nsamples = 4\nvalue = [4, 0]"] ;
236 -> 237 ;
238 [label="X[10] <= 155.0\ngini = 0.278\nsamples = 6\nvalue = [1, 5]"] ;
236 -> 238 ;
239 [label="gini = 0.0\nsamples = 4\nvalue = [0, 4]"] ;
238 -> 239 ;
240 [label="X[8] <= 5.0\ngini = 0.5\nsamples = 2\nvalue = [1, 1]"] ;
238 -> 240 ;
241 [label="gini = 0.0\nsamples = 1\nvalue = [0, 1]"] ;
240 -> 241 ;
242 [label="gini = 0.0\nsamples = 1\nvalue = [1, 0]"] ;
240 -> 242 ;
243 [label="gini = 0.0\nsamples = 5\nvalue = [0, 5]"] ;
235 -> 243 ;
244 [label="X[5] <= 1.0\ngini = 0.36\nsamples = 34\nvalue = [26, 8]"] ;
228 -> 244 ;
245 [label="X[18] <= 1.264\ngini = 0.455\nsamples = 20\nvalue = [13, 7]"] ;
244 -> 245 ;
246 [label="X[3] <= 4.0\ngini = 0.375\nsamples = 16\nvalue = [12, 4]"] ;
245 -> 246 ;
247 [label="gini = 0.0\nsamples = 7\nvalue = [7, 0]"] ;
246 -> 247 ;
248 [label="X[10] <= 137.5\ngini = 0.494\nsamples = 9\nvalue = [5, 4]"] ;
246 -> 248 ;
249 [label="gini = 0.0\nsamples = 3\nvalue = [0, 3]"] ;
248 -> 249 ;
250 [label="X[3] <= 6.5\ngini = 0.278\nsamples = 6\nvalue = [5, 1]"] ;
248 -> 250 ;
251 [label="gini = 0.0\nsamples = 5\nvalue = [5, 0]"] ;
250 -> 251 ;
252 [label="gini = 0.0\nsamples = 1\nvalue = [0, 1]"] ;
250 -> 252 ;
253 [label="X[2] <= 0.5\ngini = 0.375\nsamples = 4\nvalue = [1, 3]"] ;
245 -> 253 ;
254 [label="gini = 0.0\nsamples = 1\nvalue = [1, 0]"] ;
253 -> 254 ;
255 [label="gini = 0.0\nsamples = 3\nvalue = [0, 3]"] ;
253 -> 255 ;
256 [label="X[0] <= 39.0\ngini = 0.133\nsamples = 14\nvalue = [13, 1]"] ;
244 -> 256 ;
257 [label="gini = 0.0\nsamples = 13\nvalue = [13, 0]"] ;
256 -> 257 ;
258 [label="gini = 0.0\nsamples = 1\nvalue = [0, 1]"] ;
256 -> 258 ;
259 [label="X[18] <= 0.714\ngini = 0.24\nsamples = 43\nvalue = [37, 6]"] ;
227 -> 259 ;
260 [label="X[1] <= 3.5\ngini = 0.375\nsamples = 4\nvalue = [1, 3]"] ;
259 -> 260 ;
261 [label="gini = 0.0\nsamples = 3\nvalue = [0, 3]"] ;
260 -> 261 ;
262 [label="gini = 0.0\nsamples = 1\nvalue = [1, 0]"] ;
260 -> 262 ;
263 [label="X[8] <= 3.5\ngini = 0.142\nsamples = 39\nvalue = [36, 3]"] ;
259 -> 263 ;
264 [label="X[18] <= 1.079\ngini = 0.278\nsamples = 18\nvalue = [15, 3]"] ;
263 -> 264 ;
265 [label="X[9] <= 0.5\ngini = 0.208\nsamples = 17\nvalue = [15, 2]"] ;
264 -> 265 ;
266 [label="X[5] <= 1.0\ngini = 0.5\nsamples = 2\nvalue = [1, 1]"] ;
265 -> 266 ;
267 [label="gini = 0.0\nsamples = 1\nvalue = [1, 0]"] ;
266 -> 267 ;
268 [label="gini = 0.0\nsamples = 1\nvalue = [0, 1]"] ;
266 -> 268 ;
269 [label="X[3] <= 3.5\ngini = 0.124\nsamples = 15\nvalue = [14, 1]"] ;
265 -> 269 ;
270 [label="X[10] <= 137.0\ngini = 0.375\nsamples = 4\nvalue = [3, 1]"] ;
269 -> 270 ;
271 [label="gini = 0.0\nsamples = 1\nvalue = [0, 1]"] ;
270 -> 271 ;
272 [label="gini = 0.0\nsamples = 3\nvalue = [3, 0]"] ;
270 -> 272 ;
273 [label="gini = 0.0\nsamples = 11\nvalue = [11, 0]"] ;
269 -> 273 ;
274 [label="gini = 0.0\nsamples = 1\nvalue = [0, 1]"] ;
264 -> 274 ;
275 [label="gini = 0.0\nsamples = 21\nvalue = [21, 0]"] ;
263 -> 275 ;
276 [label="X[3] <= 1.5\ngini = 0.284\nsamples = 70\nvalue = [58, 12]"] ;
218 -> 276 ;
277 [label="X[18] <= 0.714\ngini = 0.444\nsamples = 3\nvalue = [1, 2]"] ;
276 -> 277 ;
278 [label="gini = 0.0\nsamples = 1\nvalue = [1, 0]"] ;
277 -> 278 ;
279 [label="gini = 0.0\nsamples = 2\nvalue = [0, 2]"] ;
277 -> 279 ;
280 [label="X[9] <= 1.5\ngini = 0.254\nsamples = 67\nvalue = [57, 10]"] ;
276 -> 280 ;
281 [label="X[2] <= 0.5\ngini = 0.102\nsamples = 37\nvalue = [35, 2]"] ;
280 -> 281 ;
282 [label="gini = 0.0\nsamples = 1\nvalue = [0, 1]"] ;
281 -> 282 ;
283 [label="X[10] <= 154.5\ngini = 0.054\nsamples = 36\nvalue = [35, 1]"] ;
281 -> 283 ;
284 [label="gini = 0.0\nsamples = 31\nvalue = [31, 0]"] ;
283 -> 284 ;
285 [label="X[18] <= 1.031\ngini = 0.32\nsamples = 5\nvalue = [4, 1]"] ;
283 -> 285 ;
286 [label="gini = 0.0\nsamples = 4\nvalue = [4, 0]"] ;
285 -> 286 ;
287 [label="gini = 0.0\nsamples = 1\nvalue = [0, 1]"] ;
285 -> 287 ;
288 [label="X[0] <= 35.0\ngini = 0.391\nsamples = 30\nvalue = [22, 8]"] ;
280 -> 288 ;
289 [label="X[9] <= 3.5\ngini = 0.153\nsamples = 12\nvalue = [11, 1]"] ;
288 -> 289 ;
290 [label="gini = 0.0\nsamples = 9\nvalue = [9, 0]"] ;
289 -> 290 ;
291 [label="X[18] <= 0.668\ngini = 0.444\nsamples = 3\nvalue = [2, 1]"] ;
289 -> 291 ;
292 [label="gini = 0.0\nsamples = 1\nvalue = [0, 1]"] ;
291 -> 292 ;
293 [label="gini = 0.0\nsamples = 2\nvalue = [2, 0]"] ;
291 -> 293 ;
294 [label="X[17] <= -33.3\ngini = 0.475\nsamples = 18\nvalue = [11, 7]"] ;
288 -> 294 ;
295 [label="X[10] <= 151.0\ngini = 0.469\nsamples = 8\nvalue = [3, 5]"] ;
294 -> 295 ;
296 [label="gini = 0.0\nsamples = 4\nvalue = [0, 4]"] ;
295 -> 296 ;
297 [label="X[0] <= 36.5\ngini = 0.375\nsamples = 4\nvalue = [3, 1]"] ;
295 -> 297 ;
298 [label="gini = 0.0\nsamples = 1\nvalue = [0, 1]"] ;
297 -> 298 ;
299 [label="gini = 0.0\nsamples = 3\nvalue = [3, 0]"] ;
297 -> 299 ;
300 [label="X[0] <= 56.5\ngini = 0.32\nsamples = 10\nvalue = [8, 2]"] ;
294 -> 300 ;
301 [label="X[13] <= 1.5\ngini = 0.198\nsamples = 9\nvalue = [8, 1]"] ;
300 -> 301 ;
302 [label="gini = 0.0\nsamples = 7\nvalue = [7, 0]"] ;
301 -> 302 ;
303 [label="X[1] <= 3.0\ngini = 0.5\nsamples = 2\nvalue = [1, 1]"] ;
301 -> 303 ;
304 [label="gini = 0.0\nsamples = 1\nvalue = [0, 1]"] ;
303 -> 304 ;
305 [label="gini = 0.0\nsamples = 1\nvalue = [1, 0]"] ;
303 -> 305 ;
306 [label="gini = 0.0\nsamples = 1\nvalue = [0, 1]"] ;
300 -> 306 ;
307 [label="X[0] <= 56.5\ngini = 0.133\nsamples = 14\nvalue = [13, 1]"] ;
217 -> 307 ;
308 [label="gini = 0.0\nsamples = 13\nvalue = [13, 0]"] ;
307 -> 308 ;
309 [label="gini = 0.0\nsamples = 1\nvalue = [0, 1]"] ;
307 -> 309 ;
310 [label="X[0] <= 25.5\ngini = 0.194\nsamples = 46\nvalue = [41, 5]"] ;
216 -> 310 ;
311 [label="X[13] <= 0.5\ngini = 0.48\nsamples = 5\nvalue = [2, 3]"] ;
310 -> 311 ;
312 [label="gini = 0.0\nsamples = 3\nvalue = [0, 3]"] ;
311 -> 312 ;
313 [label="gini = 0.0\nsamples = 2\nvalue = [2, 0]"] ;
311 -> 313 ;
314 [label="X[13] <= 1.5\ngini = 0.093\nsamples = 41\nvalue = [39, 2]"] ;
310 -> 314 ;
315 [label="X[3] <= 6.5\ngini = 0.05\nsamples = 39\nvalue = [38, 1]"] ;
314 -> 315 ;
316 [label="gini = 0.0\nsamples = 37\nvalue = [37, 0]"] ;
315 -> 316 ;
317 [label="X[2] <= 1.5\ngini = 0.5\nsamples = 2\nvalue = [1, 1]"] ;
315 -> 317 ;
318 [label="gini = 0.0\nsamples = 1\nvalue = [0, 1]"] ;
317 -> 318 ;
319 [label="gini = 0.0\nsamples = 1\nvalue = [1, 0]"] ;
317 -> 319 ;
320 [label="X[0] <= 40.5\ngini = 0.5\nsamples = 2\nvalue = [1, 1]"] ;
314 -> 320 ;
321 [label="gini = 0.0\nsamples = 1\nvalue = [1, 0]"] ;
320 -> 321 ;
322 [label="gini = 0.0\nsamples = 1\nvalue = [0, 1]"] ;
320 -> 322 ;
323 [label="X[18] <= 1.175\ngini = 0.436\nsamples = 81\nvalue = [55, 26]"] ;
215 -> 323 ;
324 [label="X[3] <= 1.5\ngini = 0.371\nsamples = 57\nvalue = [43, 14]"] ;
323 -> 324 ;
325 [label="X[14] <= 0.5\ngini = 0.48\nsamples = 5\nvalue = [2, 3]"] ;
324 -> 325 ;
326 [label="gini = 0.0\nsamples = 3\nvalue = [0, 3]"] ;
325 -> 326 ;
327 [label="gini = 0.0\nsamples = 2\nvalue = [2, 0]"] ;
325 -> 327 ;
328 [label="X[1] <= 10.5\ngini = 0.334\nsamples = 52\nvalue = [41, 11]"] ;
324 -> 328 ;
329 [label="X[1] <= 6.5\ngini = 0.315\nsamples = 51\nvalue = [41, 10]"] ;
328 -> 329 ;
330 [label="X[10] <= 166.5\ngini = 0.375\nsamples = 36\nvalue = [27, 9]"] ;
329 -> 330 ;
331 [label="X[10] <= 162.5\ngini = 0.245\nsamples = 21\nvalue = [18, 3]"] ;
330 -> 331 ;
332 [label="X[18] <= 0.869\ngini = 0.375\nsamples = 12\nvalue = [9, 3]"] ;
331 -> 332 ;
333 [label="X[13] <= 0.5\ngini = 0.48\nsamples = 5\nvalue = [2, 3]"] ;
332 -> 333 ;
334 [label="gini = 0.0\nsamples = 2\nvalue = [0, 2]"] ;
333 -> 334 ;
335 [label="X[18] <= 0.807\ngini = 0.444\nsamples = 3\nvalue = [2, 1]"] ;
333 -> 335 ;
336 [label="gini = 0.0\nsamples = 2\nvalue = [2, 0]"] ;
335 -> 336 ;
337 [label="gini = 0.0\nsamples = 1\nvalue = [0, 1]"] ;
335 -> 337 ;
338 [label="gini = 0.0\nsamples = 7\nvalue = [7, 0]"] ;
332 -> 338 ;
339 [label="gini = 0.0\nsamples = 9\nvalue = [9, 0]"] ;
331 -> 339 ;
340 [label="X[3] <= 5.5\ngini = 0.48\nsamples = 15\nvalue = [9, 6]"] ;
330 -> 340 ;
341 [label="gini = 0.0\nsamples = 3\nvalue = [0, 3]"] ;
340 -> 341 ;
342 [label="X[5] <= 1.0\ngini = 0.375\nsamples = 12\nvalue = [9, 3]"] ;
340 -> 342 ;
343 [label="X[18] <= 0.795\ngini = 0.48\nsamples = 5\nvalue = [2, 3]"] ;
342 -> 343 ;
344 [label="gini = 0.0\nsamples = 2\nvalue = [0, 2]"] ;
343 -> 344 ;
345 [label="X[11] <= 3.0\ngini = 0.444\nsamples = 3\nvalue = [2, 1]"] ;
343 -> 345 ;
346 [label="gini = 0.0\nsamples = 2\nvalue = [2, 0]"] ;
345 -> 346 ;
347 [label="gini = 0.0\nsamples = 1\nvalue = [0, 1]"] ;
345 -> 347 ;
348 [label="gini = 0.0\nsamples = 7\nvalue = [7, 0]"] ;
342 -> 348 ;
349 [label="X[16] <= 93.559\ngini = 0.124\nsamples = 15\nvalue = [14, 1]"] ;
329 -> 349 ;
350 [label="gini = 0.0\nsamples = 14\nvalue = [14, 0]"] ;
349 -> 350 ;
351 [label="gini = 0.0\nsamples = 1\nvalue = [0, 1]"] ;
349 -> 351 ;
352 [label="gini = 0.0\nsamples = 1\nvalue = [0, 1]"] ;
328 -> 352 ;
353 [label="X[10] <= 166.5\ngini = 0.5\nsamples = 24\nvalue = [12, 12]"] ;
323 -> 353 ;
354 [label="X[0] <= 28.0\ngini = 0.444\nsamples = 15\nvalue = [5, 10]"] ;
353 -> 354 ;
355 [label="gini = 0.0\nsamples = 2\nvalue = [2, 0]"] ;
354 -> 355 ;
356 [label="X[1] <= 4.5\ngini = 0.355\nsamples = 13\nvalue = [3, 10]"] ;
354 -> 356 ;
357 [label="X[10] <= 160.5\ngini = 0.5\nsamples = 6\nvalue = [3, 3]"] ;
356 -> 357 ;
358 [label="gini = 0.0\nsamples = 3\nvalue = [0, 3]"] ;
357 -> 358 ;
359 [label="gini = 0.0\nsamples = 3\nvalue = [3, 0]"] ;
357 -> 359 ;
360 [label="gini = 0.0\nsamples = 7\nvalue = [0, 7]"] ;
356 -> 360 ;
361 [label="X[0] <= 30.5\ngini = 0.346\nsamples = 9\nvalue = [7, 2]"] ;
353 -> 361 ;
362 [label="gini = 0.0\nsamples = 1\nvalue = [0, 1]"] ;
361 -> 362 ;
363 [label="X[0] <= 39.5\ngini = 0.219\nsamples = 8\nvalue = [7, 1]"] ;
361 -> 363 ;
364 [label="gini = 0.0\nsamples = 5\nvalue = [5, 0]"] ;
363 -> 364 ;
365 [label="X[9] <= 2.0\ngini = 0.444\nsamples = 3\nvalue = [2, 1]"] ;
363 -> 365 ;
366 [label="gini = 0.0\nsamples = 2\nvalue = [2, 0]"] ;
365 -> 366 ;
367 [label="gini = 0.0\nsamples = 1\nvalue = [0, 1]"] ;
365 -> 367 ;
368 [label="X[18] <= 0.723\ngini = 0.48\nsamples = 45\nvalue = [27, 18]"] ;
214 -> 368 ;
369 [label="X[5] <= 1.0\ngini = 0.346\nsamples = 9\nvalue = [2, 7]"] ;
368 -> 369 ;
370 [label="gini = 0.0\nsamples = 6\nvalue = [0, 6]"] ;
369 -> 370 ;
371 [label="X[3] <= 1.0\ngini = 0.444\nsamples = 3\nvalue = [2, 1]"] ;
369 -> 371 ;
372 [label="X[1] <= 7.0\ngini = 0.5\nsamples = 2\nvalue = [1, 1]"] ;
371 -> 372 ;
373 [label="gini = 0.0\nsamples = 1\nvalue = [0, 1]"] ;
372 -> 373 ;
374 [label="gini = 0.0\nsamples = 1\nvalue = [1, 0]"] ;
372 -> 374 ;
375 [label="gini = 0.0\nsamples = 1\nvalue = [1, 0]"] ;
371 -> 375 ;
376 [label="X[10] <= 156.5\ngini = 0.424\nsamples = 36\nvalue = [25, 11]"] ;
368 -> 376 ;
377 [label="X[13] <= 0.5\ngini = 0.477\nsamples = 28\nvalue = [17, 11]"] ;
376 -> 377 ;
378 [label="X[0] <= 31.0\ngini = 0.5\nsamples = 20\nvalue = [10, 10]"] ;
377 -> 378 ;
379 [label="gini = 0.0\nsamples = 3\nvalue = [3, 0]"] ;
378 -> 379 ;
380 [label="X[2] <= 1.5\ngini = 0.484\nsamples = 17\nvalue = [7, 10]"] ;
378 -> 380 ;
381 [label="X[9] <= 0.5\ngini = 0.48\nsamples = 10\nvalue = [6, 4]"] ;
380 -> 381 ;
382 [label="gini = 0.0\nsamples = 2\nvalue = [0, 2]"] ;
381 -> 382 ;
383 [label="X[10] <= 137.0\ngini = 0.375\nsamples = 8\nvalue = [6, 2]"] ;
381 -> 383 ;
384 [label="X[11] <= 1.5\ngini = 0.444\nsamples = 3\nvalue = [1, 2]"] ;
383 -> 384 ;
385 [label="gini = 0.0\nsamples = 2\nvalue = [0, 2]"] ;
384 -> 385 ;
386 [label="gini = 0.0\nsamples = 1\nvalue = [1, 0]"] ;
384 -> 386 ;
387 [label="gini = 0.0\nsamples = 5\nvalue = [5, 0]"] ;
383 -> 387 ;
388 [label="X[10] <= 134.0\ngini = 0.245\nsamples = 7\nvalue = [1, 6]"] ;
380 -> 388 ;
389 [label="gini = 0.0\nsamples = 1\nvalue = [1, 0]"] ;
388 -> 389 ;
390 [label="gini = 0.0\nsamples = 6\nvalue = [0, 6]"] ;
388 -> 390 ;
391 [label="X[10] <= 130.5\ngini = 0.219\nsamples = 8\nvalue = [7, 1]"] ;
377 -> 391 ;
392 [label="gini = 0.0\nsamples = 1\nvalue = [0, 1]"] ;
391 -> 392 ;
393 [label="gini = 0.0\nsamples = 7\nvalue = [7, 0]"] ;
391 -> 393 ;
394 [label="gini = 0.0\nsamples = 8\nvalue = [8, 0]"] ;
376 -> 394 ;
395 [label="X[10] <= 135.5\ngini = 0.13\nsamples = 43\nvalue = [40, 3]"] ;
213 -> 395 ;
396 [label="X[10] <= 134.5\ngini = 0.305\nsamples = 16\nvalue = [13, 3]"] ;
395 -> 396 ;
397 [label="X[2] <= 0.5\ngini = 0.142\nsamples = 13\nvalue = [12, 1]"] ;
396 -> 397 ;
398 [label="X[18] <= 0.785\ngini = 0.5\nsamples = 2\nvalue = [1, 1]"] ;
397 -> 398 ;
399 [label="gini = 0.0\nsamples = 1\nvalue = [1, 0]"] ;
398 -> 399 ;
400 [label="gini = 0.0\nsamples = 1\nvalue = [0, 1]"] ;
398 -> 400 ;
401 [label="gini = 0.0\nsamples = 11\nvalue = [11, 0]"] ;
397 -> 401 ;
402 [label="X[3] <= 4.5\ngini = 0.444\nsamples = 3\nvalue = [1, 2]"] ;
396 -> 402 ;
403 [label="gini = 0.0\nsamples = 1\nvalue = [1, 0]"] ;
402 -> 403 ;
404 [label="gini = 0.0\nsamples = 2\nvalue = [0, 2]"] ;
402 -> 404 ;
405 [label="gini = 0.0\nsamples = 27\nvalue = [27, 0]"] ;
395 -> 405 ;
406 [label="X[8] <= 8.5\ngini = 0.494\nsamples = 56\nvalue = [31, 25]"] ;
192 -> 406 ;
407 [label="X[10] <= 154.5\ngini = 0.499\nsamples = 52\nvalue = [27, 25]"] ;
406 -> 407 ;
408 [label="X[8] <= 0.5\ngini = 0.478\nsamples = 38\nvalue = [23, 15]"] ;
407 -> 408 ;
409 [label="gini = 0.0\nsamples = 3\nvalue = [0, 3]"] ;
408 -> 409 ;
410 [label="X[0] <= 71.5\ngini = 0.451\nsamples = 35\nvalue = [23, 12]"] ;
408 -> 410 ;
411 [label="X[10] <= 147.5\ngini = 0.484\nsamples = 17\nvalue = [7, 10]"] ;
410 -> 411 ;
412 [label="X[18] <= 0.727\ngini = 0.408\nsamples = 14\nvalue = [4, 10]"] ;
411 -> 412 ;
413 [label="X[10] <= 132.0\ngini = 0.375\nsamples = 4\nvalue = [3, 1]"] ;
412 -> 413 ;
414 [label="gini = 0.0\nsamples = 1\nvalue = [0, 1]"] ;
413 -> 414 ;
415 [label="gini = 0.0\nsamples = 3\nvalue = [3, 0]"] ;
413 -> 415 ;
416 [label="X[9] <= 0.5\ngini = 0.18\nsamples = 10\nvalue = [1, 9]"] ;
412 -> 416 ;
417 [label="X[15] <= -3.15\ngini = 0.5\nsamples = 2\nvalue = [1, 1]"] ;
416 -> 417 ;
418 [label="gini = 0.0\nsamples = 1\nvalue = [1, 0]"] ;
417 -> 418 ;
419 [label="gini = 0.0\nsamples = 1\nvalue = [0, 1]"] ;
417 -> 419 ;
420 [label="gini = 0.0\nsamples = 8\nvalue = [0, 8]"] ;
416 -> 420 ;
421 [label="gini = 0.0\nsamples = 3\nvalue = [3, 0]"] ;
411 -> 421 ;
422 [label="X[10] <= 139.5\ngini = 0.198\nsamples = 18\nvalue = [16, 2]"] ;
410 -> 422 ;
423 [label="gini = 0.0\nsamples = 12\nvalue = [12, 0]"] ;
422 -> 423 ;
424 [label="X[10] <= 149.5\ngini = 0.444\nsamples = 6\nvalue = [4, 2]"] ;
422 -> 424 ;
425 [label="gini = 0.0\nsamples = 2\nvalue = [0, 2]"] ;
424 -> 425 ;
426 [label="gini = 0.0\nsamples = 4\nvalue = [4, 0]"] ;
424 -> 426 ;
427 [label="X[9] <= 2.5\ngini = 0.408\nsamples = 14\nvalue = [4, 10]"] ;
407 -> 427 ;
428 [label="gini = 0.0\nsamples = 10\nvalue = [0, 10]"] ;
427 -> 428 ;
429 [label="gini = 0.0\nsamples = 4\nvalue = [4, 0]"] ;
427 -> 429 ;
430 [label="gini = 0.0\nsamples = 4\nvalue = [4, 0]"] ;
406 -> 430 ;
431 [label="X[12] <= 7.5\ngini = 0.134\nsamples = 125\nvalue = [116, 9]"] ;
191 -> 431 ;
432 [label="gini = 0.0\nsamples = 1\nvalue = [0, 1]"] ;
431 -> 432 ;
433 [label="X[18] <= 0.882\ngini = 0.121\nsamples = 124\nvalue = [116, 8]"] ;
431 -> 433 ;
434 [label="X[0] <= 77.5\ngini = 0.237\nsamples = 51\nvalue = [44, 7]"] ;
433 -> 434 ;
435 [label="X[10] <= 166.0\ngini = 0.211\nsamples = 50\nvalue = [44, 6]"] ;
434 -> 435 ;
436 [label="X[0] <= 40.0\ngini = 0.13\nsamples = 43\nvalue = [40, 3]"] ;
435 -> 436 ;
437 [label="gini = 0.0\nsamples = 33\nvalue = [33, 0]"] ;
436 -> 437 ;
438 [label="X[13] <= 0.5\ngini = 0.42\nsamples = 10\nvalue = [7, 3]"] ;
436 -> 438 ;
439 [label="X[3] <= 5.5\ngini = 0.48\nsamples = 5\nvalue = [2, 3]"] ;
438 -> 439 ;
440 [label="X[9] <= 3.0\ngini = 0.444\nsamples = 3\nvalue = [2, 1]"] ;
439 -> 440 ;
441 [label="gini = 0.0\nsamples = 2\nvalue = [2, 0]"] ;
440 -> 441 ;
442 [label="gini = 0.0\nsamples = 1\nvalue = [0, 1]"] ;
440 -> 442 ;
443 [label="gini = 0.0\nsamples = 2\nvalue = [0, 2]"] ;
439 -> 443 ;
444 [label="gini = 0.0\nsamples = 5\nvalue = [5, 0]"] ;
438 -> 444 ;
445 [label="X[2] <= 1.5\ngini = 0.49\nsamples = 7\nvalue = [4, 3]"] ;
435 -> 445 ;
446 [label="gini = 0.0\nsamples = 3\nvalue = [3, 0]"] ;
445 -> 446 ;
447 [label="X[11] <= 2.5\ngini = 0.375\nsamples = 4\nvalue = [1, 3]"] ;
445 -> 447 ;
448 [label="gini = 0.0\nsamples = 3\nvalue = [0, 3]"] ;
447 -> 448 ;
449 [label="gini = 0.0\nsamples = 1\nvalue = [1, 0]"] ;
447 -> 449 ;
450 [label="gini = 0.0\nsamples = 1\nvalue = [0, 1]"] ;
434 -> 450 ;
451 [label="X[10] <= 163.5\ngini = 0.027\nsamples = 73\nvalue = [72, 1]"] ;
433 -> 451 ;
452 [label="gini = 0.0\nsamples = 60\nvalue = [60, 0]"] ;
451 -> 452 ;
453 [label="X[10] <= 165.0\ngini = 0.142\nsamples = 13\nvalue = [12, 1]"] ;
451 -> 453 ;
454 [label="X[0] <= 31.5\ngini = 0.444\nsamples = 3\nvalue = [2, 1]"] ;
453 -> 454 ;
455 [label="gini = 0.0\nsamples = 1\nvalue = [0, 1]"] ;
454 -> 455 ;
456 [label="gini = 0.0\nsamples = 2\nvalue = [2, 0]"] ;
454 -> 456 ;
457 [label="gini = 0.0\nsamples = 10\nvalue = [10, 0]"] ;
453 -> 457 ;
458 [label="X[10] <= 147.5\ngini = 0.483\nsamples = 286\nvalue = [169, 117]"] ;
2 -> 458 ;
459 [label="X[16] <= 93.559\ngini = 0.43\nsamples = 201\nvalue = [138, 63]"] ;
458 -> 459 ;
460 [label="X[19] <= 5020.5\ngini = 0.483\nsamples = 145\nvalue = [86, 59]"] ;
459 -> 460 ;
461 [label="X[9] <= 1.5\ngini = 0.499\nsamples = 74\nvalue = [35, 39]"] ;
460 -> 461 ;
462 [label="X[5] <= 0.5\ngini = 0.437\nsamples = 31\nvalue = [21, 10]"] ;
461 -> 462 ;
463 [label="X[10] <= 131.0\ngini = 0.473\nsamples = 13\nvalue = [5, 8]"] ;
462 -> 463 ;
464 [label="X[0] <= 78.5\ngini = 0.219\nsamples = 8\nvalue = [1, 7]"] ;
463 -> 464 ;
465 [label="gini = 0.0\nsamples = 7\nvalue = [0, 7]"] ;
464 -> 465 ;
466 [label="gini = 0.0\nsamples = 1\nvalue = [1, 0]"] ;
464 -> 466 ;
467 [label="X[1] <= 4.5\ngini = 0.32\nsamples = 5\nvalue = [4, 1]"] ;
463 -> 467 ;
468 [label="gini = 0.0\nsamples = 3\nvalue = [3, 0]"] ;
467 -> 468 ;
469 [label="X[11] <= 1.5\ngini = 0.5\nsamples = 2\nvalue = [1, 1]"] ;
467 -> 469 ;
470 [label="gini = 0.0\nsamples = 1\nvalue = [0, 1]"] ;
469 -> 470 ;
471 [label="gini = 0.0\nsamples = 1\nvalue = [1, 0]"] ;
469 -> 471 ;
472 [label="X[0] <= 29.0\ngini = 0.198\nsamples = 18\nvalue = [16, 2]"] ;
462 -> 472 ;
473 [label="X[10] <= 90.0\ngini = 0.444\nsamples = 3\nvalue = [1, 2]"] ;
472 -> 473 ;
474 [label="gini = 0.0\nsamples = 1\nvalue = [1, 0]"] ;
473 -> 474 ;
475 [label="gini = 0.0\nsamples = 2\nvalue = [0, 2]"] ;
473 -> 475 ;
476 [label="gini = 0.0\nsamples = 15\nvalue = [15, 0]"] ;
472 -> 476 ;
477 [label="X[18] <= 0.799\ngini = 0.439\nsamples = 43\nvalue = [14, 29]"] ;
461 -> 477 ;
478 [label="X[10] <= 121.5\ngini = 0.414\nsamples = 41\nvalue = [12, 29]"] ;
477 -> 478 ;
479 [label="X[10] <= 108.5\ngini = 0.475\nsamples = 31\nvalue = [12, 19]"] ;
478 -> 479 ;
480 [label="X[10] <= 60.0\ngini = 0.34\nsamples = 23\nvalue = [5, 18]"] ;
479 -> 480 ;
481 [label="gini = 0.0\nsamples = 2\nvalue = [2, 0]"] ;
480 -> 481 ;
482 [label="X[0] <= 68.5\ngini = 0.245\nsamples = 21\nvalue = [3, 18]"] ;
480 -> 482 ;
483 [label="X[8] <= 6.0\ngini = 0.105\nsamples = 18\nvalue = [1, 17]"] ;
482 -> 483 ;
484 [label="X[18] <= 0.642\ngini = 0.5\nsamples = 2\nvalue = [1, 1]"] ;
483 -> 484 ;
485 [label="gini = 0.0\nsamples = 1\nvalue = [0, 1]"] ;
484 -> 485 ;
486 [label="gini = 0.0\nsamples = 1\nvalue = [1, 0]"] ;
484 -> 486 ;
487 [label="gini = 0.0\nsamples = 16\nvalue = [0, 16]"] ;
483 -> 487 ;
488 [label="X[6] <= 1.0\ngini = 0.444\nsamples = 3\nvalue = [2, 1]"] ;
482 -> 488 ;
489 [label="gini = 0.0\nsamples = 2\nvalue = [2, 0]"] ;
488 -> 489 ;
490 [label="gini = 0.0\nsamples = 1\nvalue = [0, 1]"] ;
488 -> 490 ;
491 [label="X[9] <= 3.5\ngini = 0.219\nsamples = 8\nvalue = [7, 1]"] ;
479 -> 491 ;
492 [label="gini = 0.0\nsamples = 6\nvalue = [6, 0]"] ;
491 -> 492 ;
493 [label="X[3] <= 4.5\ngini = 0.5\nsamples = 2\nvalue = [1, 1]"] ;
491 -> 493 ;
494 [label="gini = 0.0\nsamples = 1\nvalue = [0, 1]"] ;
493 -> 494 ;
495 [label="gini = 0.0\nsamples = 1\nvalue = [1, 0]"] ;
493 -> 495 ;
496 [label="gini = 0.0\nsamples = 10\nvalue = [0, 10]"] ;
478 -> 496 ;
497 [label="gini = 0.0\nsamples = 2\nvalue = [2, 0]"] ;
477 -> 497 ;
498 [label="X[10] <= 136.5\ngini = 0.405\nsamples = 71\nvalue = [51, 20]"] ;
460 -> 498 ;
499 [label="X[0] <= 69.5\ngini = 0.359\nsamples = 64\nvalue = [49, 15]"] ;
498 -> 499 ;
500 [label="X[1] <= 1.5\ngini = 0.32\nsamples = 60\nvalue = [48, 12]"] ;
499 -> 500 ;
501 [label="X[0] <= 53.5\ngini = 0.454\nsamples = 23\nvalue = [15, 8]"] ;
500 -> 501 ;
502 [label="X[16] <= 92.838\ngini = 0.375\nsamples = 20\nvalue = [15, 5]"] ;
501 -> 502 ;
503 [label="X[0] <= 32.0\ngini = 0.142\nsamples = 13\nvalue = [12, 1]"] ;
502 -> 503 ;
504 [label="X[9] <= 1.5\ngini = 0.5\nsamples = 2\nvalue = [1, 1]"] ;
503 -> 504 ;
505 [label="gini = 0.0\nsamples = 1\nvalue = [1, 0]"] ;
504 -> 505 ;
506 [label="gini = 0.0\nsamples = 1\nvalue = [0, 1]"] ;
504 -> 506 ;
507 [label="gini = 0.0\nsamples = 11\nvalue = [11, 0]"] ;
503 -> 507 ;
508 [label="X[11] <= 1.5\ngini = 0.49\nsamples = 7\nvalue = [3, 4]"] ;
502 -> 508 ;
509 [label="X[10] <= 104.5\ngini = 0.48\nsamples = 5\nvalue = [3, 2]"] ;
508 -> 509 ;
510 [label="X[0] <= 40.5\ngini = 0.444\nsamples = 3\nvalue = [1, 2]"] ;
509 -> 510 ;
511 [label="gini = 0.0\nsamples = 2\nvalue = [0, 2]"] ;
510 -> 511 ;
512 [label="gini = 0.0\nsamples = 1\nvalue = [1, 0]"] ;
510 -> 512 ;
513 [label="gini = 0.0\nsamples = 2\nvalue = [2, 0]"] ;
509 -> 513 ;
514 [label="gini = 0.0\nsamples = 2\nvalue = [0, 2]"] ;
508 -> 514 ;
515 [label="gini = 0.0\nsamples = 3\nvalue = [0, 3]"] ;
501 -> 515 ;
516 [label="X[1] <= 7.5\ngini = 0.193\nsamples = 37\nvalue = [33, 4]"] ;
500 -> 516 ;
517 [label="gini = 0.0\nsamples = 17\nvalue = [17, 0]"] ;
516 -> 517 ;
518 [label="X[18] <= 1.267\ngini = 0.32\nsamples = 20\nvalue = [16, 4]"] ;
516 -> 518 ;
519 [label="X[18] <= 0.86\ngini = 0.266\nsamples = 19\nvalue = [16, 3]"] ;
518 -> 519 ;
520 [label="X[15] <= -2.95\ngini = 0.5\nsamples = 4\nvalue = [2, 2]"] ;
519 -> 520 ;
521 [label="gini = 0.0\nsamples = 2\nvalue = [2, 0]"] ;
520 -> 521 ;
522 [label="gini = 0.0\nsamples = 2\nvalue = [0, 2]"] ;
520 -> 522 ;
523 [label="X[1] <= 10.5\ngini = 0.124\nsamples = 15\nvalue = [14, 1]"] ;
519 -> 523 ;
524 [label="gini = 0.0\nsamples = 13\nvalue = [13, 0]"] ;
523 -> 524 ;
525 [label="X[10] <= 96.5\ngini = 0.5\nsamples = 2\nvalue = [1, 1]"] ;
523 -> 525 ;
526 [label="gini = 0.0\nsamples = 1\nvalue = [1, 0]"] ;
525 -> 526 ;
527 [label="gini = 0.0\nsamples = 1\nvalue = [0, 1]"] ;
525 -> 527 ;
528 [label="gini = 0.0\nsamples = 1\nvalue = [0, 1]"] ;
518 -> 528 ;
529 [label="X[9] <= 3.5\ngini = 0.375\nsamples = 4\nvalue = [1, 3]"] ;
499 -> 529 ;
530 [label="gini = 0.0\nsamples = 3\nvalue = [0, 3]"] ;
529 -> 530 ;
531 [label="gini = 0.0\nsamples = 1\nvalue = [1, 0]"] ;
529 -> 531 ;
532 [label="X[1] <= 8.5\ngini = 0.408\nsamples = 7\nvalue = [2, 5]"] ;
498 -> 532 ;
533 [label="X[18] <= 0.884\ngini = 0.278\nsamples = 6\nvalue = [1, 5]"] ;
532 -> 533 ;
534 [label="gini = 0.0\nsamples = 5\nvalue = [0, 5]"] ;
533 -> 534 ;
535 [label="gini = 0.0\nsamples = 1\nvalue = [1, 0]"] ;
533 -> 535 ;
536 [label="gini = 0.0\nsamples = 1\nvalue = [1, 0]"] ;
532 -> 536 ;
537 [label="X[10] <= 134.5\ngini = 0.133\nsamples = 56\nvalue = [52, 4]"] ;
459 -> 537 ;
538 [label="X[12] <= 1.0\ngini = 0.045\nsamples = 43\nvalue = [42, 1]"] ;
537 -> 538 ;
539 [label="X[0] <= 39.0\ngini = 0.5\nsamples = 2\nvalue = [1, 1]"] ;
538 -> 539 ;
540 [label="gini = 0.0\nsamples = 1\nvalue = [1, 0]"] ;
539 -> 540 ;
541 [label="gini = 0.0\nsamples = 1\nvalue = [0, 1]"] ;
539 -> 541 ;
542 [label="gini = 0.0\nsamples = 41\nvalue = [41, 0]"] ;
538 -> 542 ;
543 [label="X[12] <= 11.5\ngini = 0.355\nsamples = 13\nvalue = [10, 3]"] ;
537 -> 543 ;
544 [label="X[10] <= 136.0\ngini = 0.278\nsamples = 12\nvalue = [10, 2]"] ;
543 -> 544 ;
545 [label="gini = 0.0\nsamples = 1\nvalue = [0, 1]"] ;
544 -> 545 ;
546 [label="X[10] <= 138.5\ngini = 0.165\nsamples = 11\nvalue = [10, 1]"] ;
544 -> 546 ;
547 [label="X[19] <= 4977.6\ngini = 0.375\nsamples = 4\nvalue = [3, 1]"] ;
546 -> 547 ;
548 [label="gini = 0.0\nsamples = 3\nvalue = [3, 0]"] ;
547 -> 548 ;
549 [label="gini = 0.0\nsamples = 1\nvalue = [0, 1]"] ;
547 -> 549 ;
550 [label="gini = 0.0\nsamples = 7\nvalue = [7, 0]"] ;
546 -> 550 ;
551 [label="gini = 0.0\nsamples = 1\nvalue = [0, 1]"] ;
543 -> 551 ;
552 [label="X[9] <= 1.5\ngini = 0.463\nsamples = 85\nvalue = [31, 54]"] ;
458 -> 552 ;
553 [label="X[10] <= 158.5\ngini = 0.498\nsamples = 34\nvalue = [18, 16]"] ;
552 -> 553 ;
554 [label="X[0] <= 31.5\ngini = 0.305\nsamples = 16\nvalue = [13, 3]"] ;
553 -> 554 ;
555 [label="X[15] <= -2.35\ngini = 0.48\nsamples = 5\nvalue = [2, 3]"] ;
554 -> 555 ;
556 [label="gini = 0.0\nsamples = 3\nvalue = [0, 3]"] ;
555 -> 556 ;
557 [label="gini = 0.0\nsamples = 2\nvalue = [2, 0]"] ;
555 -> 557 ;
558 [label="gini = 0.0\nsamples = 11\nvalue = [11, 0]"] ;
554 -> 558 ;
559 [label="X[1] <= 4.5\ngini = 0.401\nsamples = 18\nvalue = [5, 13]"] ;
553 -> 559 ;
560 [label="gini = 0.0\nsamples = 8\nvalue = [0, 8]"] ;
559 -> 560 ;
561 [label="X[10] <= 164.5\ngini = 0.5\nsamples = 10\nvalue = [5, 5]"] ;
559 -> 561 ;
562 [label="gini = 0.0\nsamples = 4\nvalue = [4, 0]"] ;
561 -> 562 ;
563 [label="X[12] <= 6.5\ngini = 0.278\nsamples = 6\nvalue = [1, 5]"] ;
561 -> 563 ;
564 [label="gini = 0.0\nsamples = 4\nvalue = [0, 4]"] ;
563 -> 564 ;
565 [label="X[3] <= 3.0\ngini = 0.5\nsamples = 2\nvalue = [1, 1]"] ;
563 -> 565 ;
566 [label="gini = 0.0\nsamples = 1\nvalue = [0, 1]"] ;
565 -> 566 ;
567 [label="gini = 0.0\nsamples = 1\nvalue = [1, 0]"] ;
565 -> 567 ;
568 [label="X[19] <= 5049.85\ngini = 0.38\nsamples = 51\nvalue = [13, 38]"] ;
552 -> 568 ;
569 [label="X[1] <= 8.5\ngini = 0.26\nsamples = 39\nvalue = [6, 33]"] ;
568 -> 569 ;
570 [label="X[12] <= 1.5\ngini = 0.161\nsamples = 34\nvalue = [3, 31]"] ;
569 -> 570 ;
571 [label="X[2] <= 1.0\ngini = 0.5\nsamples = 2\nvalue = [1, 1]"] ;
570 -> 571 ;
572 [label="gini = 0.0\nsamples = 1\nvalue = [0, 1]"] ;
571 -> 572 ;
573 [label="gini = 0.0\nsamples = 1\nvalue = [1, 0]"] ;
571 -> 573 ;
574 [label="X[17] <= -28.35\ngini = 0.117\nsamples = 32\nvalue = [2, 30]"] ;
570 -> 574 ;
575 [label="X[13] <= 1.5\ngini = 0.067\nsamples = 29\nvalue = [1, 28]"] ;
574 -> 575 ;
576 [label="X[18] <= 0.706\ngini = 0.198\nsamples = 9\nvalue = [1, 8]"] ;
575 -> 576 ;
577 [label="X[12] <= 8.5\ngini = 0.5\nsamples = 2\nvalue = [1, 1]"] ;
576 -> 577 ;
578 [label="gini = 0.0\nsamples = 1\nvalue = [1, 0]"] ;
577 -> 578 ;
579 [label="gini = 0.0\nsamples = 1\nvalue = [0, 1]"] ;
577 -> 579 ;
580 [label="gini = 0.0\nsamples = 7\nvalue = [0, 7]"] ;
576 -> 580 ;
581 [label="gini = 0.0\nsamples = 20\nvalue = [0, 20]"] ;
575 -> 581 ;
582 [label="X[0] <= 43.5\ngini = 0.444\nsamples = 3\nvalue = [1, 2]"] ;
574 -> 582 ;
583 [label="gini = 0.0\nsamples = 2\nvalue = [0, 2]"] ;
582 -> 583 ;
584 [label="gini = 0.0\nsamples = 1\nvalue = [1, 0]"] ;
582 -> 584 ;
585 [label="X[10] <= 165.5\ngini = 0.48\nsamples = 5\nvalue = [3, 2]"] ;
569 -> 585 ;
586 [label="gini = 0.0\nsamples = 2\nvalue = [0, 2]"] ;
585 -> 586 ;
587 [label="gini = 0.0\nsamples = 3\nvalue = [3, 0]"] ;
585 -> 587 ;
588 [label="X[1] <= 0.5\ngini = 0.486\nsamples = 12\nvalue = [7, 5]"] ;
568 -> 588 ;
589 [label="gini = 0.0\nsamples = 4\nvalue = [4, 0]"] ;
588 -> 589 ;
590 [label="X[10] <= 148.5\ngini = 0.469\nsamples = 8\nvalue = [3, 5]"] ;
588 -> 590 ;
591 [label="gini = 0.0\nsamples = 1\nvalue = [1, 0]"] ;
590 -> 591 ;
592 [label="X[9] <= 3.5\ngini = 0.408\nsamples = 7\nvalue = [2, 5]"] ;
590 -> 592 ;
593 [label="gini = 0.0\nsamples = 4\nvalue = [0, 4]"] ;
592 -> 593 ;
594 [label="X[12] <= 3.5\ngini = 0.444\nsamples = 3\nvalue = [2, 1]"] ;
592 -> 594 ;
595 [label="gini = 0.0\nsamples = 2\nvalue = [2, 0]"] ;
594 -> 595 ;
596 [label="gini = 0.0\nsamples = 1\nvalue = [0, 1]"] ;
594 -> 596 ;
597 [label="X[12] <= 16.5\ngini = 0.475\nsamples = 3073\nvalue = [1192, 1881]"] ;
1 -> 597 ;
598 [label="X[11] <= 6.5\ngini = 0.299\nsamples = 900\nvalue = [165, 735]"] ;
597 -> 598 ;
599 [label="X[19] <= 5020.5\ngini = 0.295\nsamples = 894\nvalue = [161, 733]"] ;
598 -> 599 ;
600 [label="X[10] <= 213.5\ngini = 0.271\nsamples = 723\nvalue = [117, 606]"] ;
599 -> 600 ;
601 [label="X[18] <= 1.047\ngini = 0.377\nsamples = 143\nvalue = [36, 107]"] ;
600 -> 601 ;
602 [label="X[12] <= 6.5\ngini = 0.366\nsamples = 141\nvalue = [34, 107]"] ;
601 -> 602 ;
603 [label="X[3] <= 4.0\ngini = 0.295\nsamples = 100\nvalue = [18, 82]"] ;
602 -> 603 ;
604 [label="X[10] <= 186.5\ngini = 0.432\nsamples = 38\nvalue = [12, 26]"] ;
603 -> 604 ;
605 [label="gini = 0.0\nsamples = 13\nvalue = [0, 13]"] ;
604 -> 605 ;
606 [label="X[10] <= 189.5\ngini = 0.499\nsamples = 25\nvalue = [12, 13]"] ;
604 -> 606 ;
607 [label="gini = 0.0\nsamples = 4\nvalue = [4, 0]"] ;
606 -> 607 ;
608 [label="X[9] <= 1.5\ngini = 0.472\nsamples = 21\nvalue = [8, 13]"] ;
606 -> 608 ;
609 [label="gini = 0.0\nsamples = 5\nvalue = [0, 5]"] ;
608 -> 609 ;
610 [label="X[11] <= 1.5\ngini = 0.5\nsamples = 16\nvalue = [8, 8]"] ;
608 -> 610 ;
611 [label="X[12] <= 2.5\ngini = 0.346\nsamples = 9\nvalue = [2, 7]"] ;
610 -> 611 ;
612 [label="gini = 0.0\nsamples = 1\nvalue = [1, 0]"] ;
611 -> 612 ;
613 [label="X[16] <= 92.405\ngini = 0.219\nsamples = 8\nvalue = [1, 7]"] ;
611 -> 613 ;
614 [label="gini = 0.0\nsamples = 1\nvalue = [1, 0]"] ;
613 -> 614 ;
615 [label="gini = 0.0\nsamples = 7\nvalue = [0, 7]"] ;
613 -> 615 ;
616 [label="X[13] <= 2.5\ngini = 0.245\nsamples = 7\nvalue = [6, 1]"] ;
610 -> 616 ;
617 [label="gini = 0.0\nsamples = 5\nvalue = [5, 0]"] ;
616 -> 617 ;
618 [label="X[10] <= 201.5\ngini = 0.5\nsamples = 2\nvalue = [1, 1]"] ;
616 -> 618 ;
619 [label="gini = 0.0\nsamples = 1\nvalue = [0, 1]"] ;
618 -> 619 ;
620 [label="gini = 0.0\nsamples = 1\nvalue = [1, 0]"] ;
618 -> 620 ;
621 [label="X[10] <= 211.5\ngini = 0.175\nsamples = 62\nvalue = [6, 56]"] ;
603 -> 621 ;
622 [label="X[0] <= 23.5\ngini = 0.126\nsamples = 59\nvalue = [4, 55]"] ;
621 -> 622 ;
623 [label="X[15] <= -2.25\ngini = 0.5\nsamples = 2\nvalue = [1, 1]"] ;
622 -> 623 ;
624 [label="gini = 0.0\nsamples = 1\nvalue = [1, 0]"] ;
623 -> 624 ;
625 [label="gini = 0.0\nsamples = 1\nvalue = [0, 1]"] ;
623 -> 625 ;
626 [label="X[18] <= 0.665\ngini = 0.1\nsamples = 57\nvalue = [3, 54]"] ;
622 -> 626 ;
627 [label="X[18] <= 0.648\ngini = 0.278\nsamples = 12\nvalue = [2, 10]"] ;
626 -> 627 ;
628 [label="gini = 0.0\nsamples = 9\nvalue = [0, 9]"] ;
627 -> 628 ;
629 [label="X[10] <= 183.5\ngini = 0.444\nsamples = 3\nvalue = [2, 1]"] ;
627 -> 629 ;
630 [label="gini = 0.0\nsamples = 1\nvalue = [0, 1]"] ;
629 -> 630 ;
631 [label="gini = 0.0\nsamples = 2\nvalue = [2, 0]"] ;
629 -> 631 ;
632 [label="X[10] <= 174.5\ngini = 0.043\nsamples = 45\nvalue = [1, 44]"] ;
626 -> 632 ;
633 [label="X[16] <= 93.49\ngini = 0.444\nsamples = 3\nvalue = [1, 2]"] ;
632 -> 633 ;
634 [label="gini = 0.0\nsamples = 2\nvalue = [0, 2]"] ;
633 -> 634 ;
635 [label="gini = 0.0\nsamples = 1\nvalue = [1, 0]"] ;
633 -> 635 ;
636 [label="gini = 0.0\nsamples = 42\nvalue = [0, 42]"] ;
632 -> 636 ;
637 [label="X[13] <= 2.5\ngini = 0.444\nsamples = 3\nvalue = [2, 1]"] ;
621 -> 637 ;
638 [label="gini = 0.0\nsamples = 2\nvalue = [2, 0]"] ;
637 -> 638 ;
639 [label="gini = 0.0\nsamples = 1\nvalue = [0, 1]"] ;
637 -> 639 ;
640 [label="X[18] <= 0.645\ngini = 0.476\nsamples = 41\nvalue = [16, 25]"] ;
602 -> 640 ;
641 [label="gini = 0.0\nsamples = 4\nvalue = [4, 0]"] ;
640 -> 641 ;
642 [label="X[1] <= 4.5\ngini = 0.438\nsamples = 37\nvalue = [12, 25]"] ;
640 -> 642 ;
643 [label="X[18] <= 0.879\ngini = 0.5\nsamples = 18\nvalue = [9, 9]"] ;
642 -> 643 ;
644 [label="X[18] <= 0.715\ngini = 0.48\nsamples = 15\nvalue = [9, 6]"] ;
643 -> 644 ;
645 [label="X[2] <= 1.5\ngini = 0.444\nsamples = 9\nvalue = [3, 6]"] ;
644 -> 645 ;
646 [label="X[9] <= 1.5\ngini = 0.278\nsamples = 6\nvalue = [1, 5]"] ;
645 -> 646 ;
647 [label="gini = 0.0\nsamples = 1\nvalue = [1, 0]"] ;
646 -> 647 ;
648 [label="gini = 0.0\nsamples = 5\nvalue = [0, 5]"] ;
646 -> 648 ;
649 [label="X[0] <= 29.5\ngini = 0.444\nsamples = 3\nvalue = [2, 1]"] ;
645 -> 649 ;
650 [label="gini = 0.0\nsamples = 1\nvalue = [0, 1]"] ;
649 -> 650 ;
651 [label="gini = 0.0\nsamples = 2\nvalue = [2, 0]"] ;
649 -> 651 ;
652 [label="gini = 0.0\nsamples = 6\nvalue = [6, 0]"] ;
644 -> 652 ;
653 [label="gini = 0.0\nsamples = 3\nvalue = [0, 3]"] ;
643 -> 653 ;
654 [label="X[0] <= 19.0\ngini = 0.266\nsamples = 19\nvalue = [3, 16]"] ;
642 -> 654 ;
655 [label="gini = 0.0\nsamples = 1\nvalue = [1, 0]"] ;
654 -> 655 ;
656 [label="X[17] <= -50.15\ngini = 0.198\nsamples = 18\nvalue = [2, 16]"] ;
654 -> 656 ;
657 [label="gini = 0.0\nsamples = 1\nvalue = [1, 0]"] ;
656 -> 657 ;
658 [label="X[10] <= 174.5\ngini = 0.111\nsamples = 17\nvalue = [1, 16]"] ;
656 -> 658 ;
659 [label="X[19] <= 4977.6\ngini = 0.5\nsamples = 2\nvalue = [1, 1]"] ;
658 -> 659 ;
660 [label="gini = 0.0\nsamples = 1\nvalue = [0, 1]"] ;
659 -> 660 ;
661 [label="gini = 0.0\nsamples = 1\nvalue = [1, 0]"] ;
659 -> 661 ;
662 [label="gini = 0.0\nsamples = 15\nvalue = [0, 15]"] ;
658 -> 662 ;
663 [label="gini = 0.0\nsamples = 2\nvalue = [2, 0]"] ;
601 -> 663 ;
664 [label="X[13] <= 6.0\ngini = 0.24\nsamples = 580\nvalue = [81, 499]"] ;
600 -> 664 ;
665 [label="X[14] <= 1.0\ngini = 0.238\nsamples = 579\nvalue = [80, 499]"] ;
664 -> 665 ;
666 [label="X[10] <= 284.0\ngini = 0.38\nsamples = 47\nvalue = [12, 35]"] ;
665 -> 666 ;
667 [label="X[18] <= 0.714\ngini = 0.469\nsamples = 8\nvalue = [5, 3]"] ;
666 -> 667 ;
668 [label="gini = 0.0\nsamples = 2\nvalue = [0, 2]"] ;
667 -> 668 ;
669 [label="X[9] <= 3.5\ngini = 0.278\nsamples = 6\nvalue = [5, 1]"] ;
667 -> 669 ;
670 [label="gini = 0.0\nsamples = 5\nvalue = [5, 0]"] ;
669 -> 670 ;
671 [label="gini = 0.0\nsamples = 1\nvalue = [0, 1]"] ;
669 -> 671 ;
672 [label="X[18] <= 0.678\ngini = 0.295\nsamples = 39\nvalue = [7, 32]"] ;
666 -> 672 ;
673 [label="X[12] <= 11.0\ngini = 0.444\nsamples = 3\nvalue = [2, 1]"] ;
672 -> 673 ;
674 [label="gini = 0.0\nsamples = 2\nvalue = [2, 0]"] ;
673 -> 674 ;
675 [label="gini = 0.0\nsamples = 1\nvalue = [0, 1]"] ;
673 -> 675 ;
676 [label="X[13] <= 3.5\ngini = 0.239\nsamples = 36\nvalue = [5, 31]"] ;
672 -> 676 ;
677 [label="X[10] <= 718.5\ngini = 0.124\nsamples = 30\nvalue = [2, 28]"] ;
676 -> 677 ;
678 [label="gini = 0.0\nsamples = 23\nvalue = [0, 23]"] ;
677 -> 678 ;
679 [label="X[9] <= 1.5\ngini = 0.408\nsamples = 7\nvalue = [2, 5]"] ;
677 -> 679 ;
680 [label="gini = 0.0\nsamples = 2\nvalue = [2, 0]"] ;
679 -> 680 ;
681 [label="gini = 0.0\nsamples = 5\nvalue = [0, 5]"] ;
679 -> 681 ;
682 [label="X[12] <= 7.5\ngini = 0.5\nsamples = 6\nvalue = [3, 3]"] ;
676 -> 682 ;
683 [label="gini = 0.0\nsamples = 2\nvalue = [0, 2]"] ;
682 -> 683 ;
684 [label="X[0] <= 66.5\ngini = 0.375\nsamples = 4\nvalue = [3, 1]"] ;
682 -> 684 ;
685 [label="gini = 0.0\nsamples = 3\nvalue = [3, 0]"] ;
684 -> 685 ;
686 [label="gini = 0.0\nsamples = 1\nvalue = [0, 1]"] ;
684 -> 686 ;
687 [label="X[1] <= 10.5\ngini = 0.223\nsamples = 532\nvalue = [68, 464]"] ;
665 -> 687 ;
688 [label="X[10] <= 435.5\ngini = 0.217\nsamples = 525\nvalue = [65, 460]"] ;
687 -> 688 ;
689 [label="X[10] <= 434.5\ngini = 0.249\nsamples = 370\nvalue = [54, 316]"] ;
688 -> 689 ;
690 [label="X[11] <= 3.5\ngini = 0.246\nsamples = 369\nvalue = [53, 316]"] ;
689 -> 690 ;
691 [label="X[5] <= 1.5\ngini = 0.231\nsamples = 346\nvalue = [46, 300]"] ;
690 -> 691 ;
692 [label="X[10] <= 405.5\ngini = 0.146\nsamples = 139\nvalue = [11, 128]"] ;
691 -> 692 ;
693 [label="X[9] <= 2.5\ngini = 0.116\nsamples = 129\nvalue = [8, 121]"] ;
692 -> 693 ;
694 [label="X[12] <= 3.5\ngini = 0.178\nsamples = 81\nvalue = [8, 73]"] ;
693 -> 694 ;
695 [label="X[13] <= 3.5\ngini = 0.057\nsamples = 34\nvalue = [1, 33]"] ;
694 -> 695 ;
696 [label="gini = 0.0\nsamples = 31\nvalue = [0, 31]"] ;
695 -> 696 ;
697 [label="X[11] <= 1.5\ngini = 0.444\nsamples = 3\nvalue = [1, 2]"] ;
695 -> 697 ;
698 [label="gini = 0.0\nsamples = 2\nvalue = [0, 2]"] ;
697 -> 698 ;
699 [label="gini = 0.0\nsamples = 1\nvalue = [1, 0]"] ;
697 -> 699 ;
700 [label="X[12] <= 5.5\ngini = 0.254\nsamples = 47\nvalue = [7, 40]"] ;
694 -> 700 ;
701 [label="X[8] <= 3.5\ngini = 0.49\nsamples = 7\nvalue = [3, 4]"] ;
700 -> 701 ;
702 [label="gini = 0.0\nsamples = 2\nvalue = [0, 2]"] ;
701 -> 702 ;
703 [label="X[11] <= 1.5\ngini = 0.48\nsamples = 5\nvalue = [3, 2]"] ;
701 -> 703 ;
704 [label="gini = 0.0\nsamples = 2\nvalue = [2, 0]"] ;
703 -> 704 ;
705 [label="X[8] <= 6.0\ngini = 0.444\nsamples = 3\nvalue = [1, 2]"] ;
703 -> 705 ;
706 [label="gini = 0.0\nsamples = 1\nvalue = [1, 0]"] ;
705 -> 706 ;
707 [label="gini = 0.0\nsamples = 2\nvalue = [0, 2]"] ;
705 -> 707 ;
708 [label="X[7] <= 0.5\ngini = 0.18\nsamples = 40\nvalue = [4, 36]"] ;
700 -> 708 ;
709 [label="X[10] <= 261.5\ngini = 0.105\nsamples = 36\nvalue = [2, 34]"] ;
708 -> 709 ;
710 [label="X[0] <= 46.5\ngini = 0.346\nsamples = 9\nvalue = [2, 7]"] ;
709 -> 710 ;
711 [label="gini = 0.0\nsamples = 6\nvalue = [0, 6]"] ;
710 -> 711 ;
712 [label="X[9] <= 1.5\ngini = 0.444\nsamples = 3\nvalue = [2, 1]"] ;
710 -> 712 ;
713 [label="gini = 0.0\nsamples = 2\nvalue = [2, 0]"] ;
712 -> 713 ;
714 [label="gini = 0.0\nsamples = 1\nvalue = [0, 1]"] ;
712 -> 714 ;
715 [label="gini = 0.0\nsamples = 27\nvalue = [0, 27]"] ;
709 -> 715 ;
716 [label="X[2] <= 1.5\ngini = 0.5\nsamples = 4\nvalue = [2, 2]"] ;
708 -> 716 ;
717 [label="gini = 0.0\nsamples = 2\nvalue = [2, 0]"] ;
716 -> 717 ;
718 [label="gini = 0.0\nsamples = 2\nvalue = [0, 2]"] ;
716 -> 718 ;
719 [label="gini = 0.0\nsamples = 48\nvalue = [0, 48]"] ;
693 -> 719 ;
720 [label="X[8] <= 6.5\ngini = 0.42\nsamples = 10\nvalue = [3, 7]"] ;
692 -> 720 ;
721 [label="gini = 0.0\nsamples = 6\nvalue = [0, 6]"] ;
720 -> 721 ;
722 [label="X[13] <= 1.5\ngini = 0.375\nsamples = 4\nvalue = [3, 1]"] ;
720 -> 722 ;
723 [label="gini = 0.0\nsamples = 3\nvalue = [3, 0]"] ;
722 -> 723 ;
724 [label="gini = 0.0\nsamples = 1\nvalue = [0, 1]"] ;
722 -> 724 ;
725 [label="X[0] <= 80.5\ngini = 0.281\nsamples = 207\nvalue = [35, 172]"] ;
691 -> 725 ;
726 [label="X[3] <= 5.5\ngini = 0.27\nsamples = 205\nvalue = [33, 172]"] ;
725 -> 726 ;
727 [label="X[12] <= 2.5\ngini = 0.19\nsamples = 122\nvalue = [13, 109]"] ;
726 -> 727 ;
728 [label="X[6] <= 1.0\ngini = 0.5\nsamples = 6\nvalue = [3, 3]"] ;
727 -> 728 ;
729 [label="X[10] <= 342.5\ngini = 0.375\nsamples = 4\nvalue = [3, 1]"] ;
728 -> 729 ;
730 [label="gini = 0.0\nsamples = 3\nvalue = [3, 0]"] ;
729 -> 730 ;
731 [label="gini = 0.0\nsamples = 1\nvalue = [0, 1]"] ;
729 -> 731 ;
732 [label="gini = 0.0\nsamples = 2\nvalue = [0, 2]"] ;
728 -> 732 ;
733 [label="X[0] <= 50.5\ngini = 0.158\nsamples = 116\nvalue = [10, 106]"] ;
727 -> 733 ;
734 [label="X[4] <= 0.5\ngini = 0.05\nsamples = 78\nvalue = [2, 76]"] ;
733 -> 734 ;
735 [label="X[18] <= 0.646\ngini = 0.026\nsamples = 77\nvalue = [1, 76]"] ;
734 -> 735 ;
736 [label="X[6] <= 1.0\ngini = 0.444\nsamples = 3\nvalue = [1, 2]"] ;
735 -> 736 ;
737 [label="gini = 0.0\nsamples = 2\nvalue = [0, 2]"] ;
736 -> 737 ;
738 [label="gini = 0.0\nsamples = 1\nvalue = [1, 0]"] ;
736 -> 738 ;
739 [label="gini = 0.0\nsamples = 74\nvalue = [0, 74]"] ;
735 -> 739 ;
740 [label="gini = 0.0\nsamples = 1\nvalue = [1, 0]"] ;
734 -> 740 ;
741 [label="X[9] <= 1.5\ngini = 0.332\nsamples = 38\nvalue = [8, 30]"] ;
733 -> 741 ;
742 [label="X[18] <= 0.683\ngini = 0.486\nsamples = 12\nvalue = [5, 7]"] ;
741 -> 742 ;
743 [label="gini = 0.0\nsamples = 3\nvalue = [3, 0]"] ;
742 -> 743 ;
744 [label="X[0] <= 53.0\ngini = 0.346\nsamples = 9\nvalue = [2, 7]"] ;
742 -> 744 ;
745 [label="gini = 0.0\nsamples = 2\nvalue = [2, 0]"] ;
744 -> 745 ;
746 [label="gini = 0.0\nsamples = 7\nvalue = [0, 7]"] ;
744 -> 746 ;
747 [label="X[16] <= 94.684\ngini = 0.204\nsamples = 26\nvalue = [3, 23]"] ;
741 -> 747 ;
748 [label="X[3] <= 0.5\ngini = 0.147\nsamples = 25\nvalue = [2, 23]"] ;
747 -> 748 ;
749 [label="X[0] <= 64.0\ngini = 0.298\nsamples = 11\nvalue = [2, 9]"] ;
748 -> 749 ;
750 [label="X[10] <= 297.0\ngini = 0.5\nsamples = 4\nvalue = [2, 2]"] ;
749 -> 750 ;
751 [label="gini = 0.0\nsamples = 2\nvalue = [2, 0]"] ;
750 -> 751 ;
752 [label="gini = 0.0\nsamples = 2\nvalue = [0, 2]"] ;
750 -> 752 ;
753 [label="gini = 0.0\nsamples = 7\nvalue = [0, 7]"] ;
749 -> 753 ;
754 [label="gini = 0.0\nsamples = 14\nvalue = [0, 14]"] ;
748 -> 754 ;
755 [label="gini = 0.0\nsamples = 1\nvalue = [1, 0]"] ;
747 -> 755 ;
756 [label="X[12] <= 10.5\ngini = 0.366\nsamples = 83\nvalue = [20, 63]"] ;
726 -> 756 ;
757 [label="X[0] <= 30.5\ngini = 0.317\nsamples = 76\nvalue = [15, 61]"] ;
756 -> 757 ;
758 [label="X[16] <= 94.207\ngini = 0.49\nsamples = 21\nvalue = [9, 12]"] ;
757 -> 758 ;
759 [label="X[1] <= 7.0\ngini = 0.415\nsamples = 17\nvalue = [5, 12]"] ;
758 -> 759 ;
760 [label="X[11] <= 2.5\ngini = 0.496\nsamples = 11\nvalue = [5, 6]"] ;
759 -> 760 ;
761 [label="X[18] <= 0.681\ngini = 0.278\nsamples = 6\nvalue = [5, 1]"] ;
760 -> 761 ;
762 [label="X[0] <= 28.5\ngini = 0.5\nsamples = 2\nvalue = [1, 1]"] ;
761 -> 762 ;
763 [label="gini = 0.0\nsamples = 1\nvalue = [1, 0]"] ;
762 -> 763 ;
764 [label="gini = 0.0\nsamples = 1\nvalue = [0, 1]"] ;
762 -> 764 ;
765 [label="gini = 0.0\nsamples = 4\nvalue = [4, 0]"] ;
761 -> 765 ;
766 [label="gini = 0.0\nsamples = 5\nvalue = [0, 5]"] ;
760 -> 766 ;
767 [label="gini = 0.0\nsamples = 6\nvalue = [0, 6]"] ;
759 -> 767 ;
768 [label="gini = 0.0\nsamples = 4\nvalue = [4, 0]"] ;
758 -> 768 ;
769 [label="X[10] <= 426.5\ngini = 0.194\nsamples = 55\nvalue = [6, 49]"] ;
757 -> 769 ;
770 [label="X[7] <= 0.5\ngini = 0.171\nsamples = 53\nvalue = [5, 48]"] ;
769 -> 770 ;
771 [label="X[0] <= 61.0\ngini = 0.124\nsamples = 45\nvalue = [3, 42]"] ;
770 -> 771 ;
772 [label="X[8] <= 4.5\ngini = 0.089\nsamples = 43\nvalue = [2, 41]"] ;
771 -> 772 ;
773 [label="X[10] <= 257.5\ngini = 0.208\nsamples = 17\nvalue = [2, 15]"] ;
772 -> 773 ;
774 [label="gini = 0.0\nsamples = 1\nvalue = [1, 0]"] ;
773 -> 774 ;
775 [label="X[8] <= 3.5\ngini = 0.117\nsamples = 16\nvalue = [1, 15]"] ;
773 -> 775 ;
776 [label="gini = 0.0\nsamples = 12\nvalue = [0, 12]"] ;
775 -> 776 ;
777 [label="X[0] <= 35.5\ngini = 0.375\nsamples = 4\nvalue = [1, 3]"] ;
775 -> 777 ;
778 [label="gini = 0.0\nsamples = 1\nvalue = [1, 0]"] ;
777 -> 778 ;
779 [label="gini = 0.0\nsamples = 3\nvalue = [0, 3]"] ;
777 -> 779 ;
780 [label="gini = 0.0\nsamples = 26\nvalue = [0, 26]"] ;
772 -> 780 ;
781 [label="X[16] <= 93.338\ngini = 0.5\nsamples = 2\nvalue = [1, 1]"] ;
771 -> 781 ;
782 [label="gini = 0.0\nsamples = 1\nvalue = [1, 0]"] ;
781 -> 782 ;
783 [label="gini = 0.0\nsamples = 1\nvalue = [0, 1]"] ;
781 -> 783 ;
784 [label="X[11] <= 1.5\ngini = 0.375\nsamples = 8\nvalue = [2, 6]"] ;
770 -> 784 ;
785 [label="gini = 0.0\nsamples = 6\nvalue = [0, 6]"] ;
784 -> 785 ;
786 [label="gini = 0.0\nsamples = 2\nvalue = [2, 0]"] ;
784 -> 786 ;
787 [label="X[17] <= -39.05\ngini = 0.5\nsamples = 2\nvalue = [1, 1]"] ;
769 -> 787 ;
788 [label="gini = 0.0\nsamples = 1\nvalue = [1, 0]"] ;
787 -> 788 ;
789 [label="gini = 0.0\nsamples = 1\nvalue = [0, 1]"] ;
787 -> 789 ;
790 [label="X[15] <= -1.4\ngini = 0.408\nsamples = 7\nvalue = [5, 2]"] ;
756 -> 790 ;
791 [label="X[12] <= 13.0\ngini = 0.278\nsamples = 6\nvalue = [5, 1]"] ;
790 -> 791 ;
792 [label="gini = 0.0\nsamples = 3\nvalue = [3, 0]"] ;
791 -> 792 ;
793 [label="X[18] <= 0.765\ngini = 0.444\nsamples = 3\nvalue = [2, 1]"] ;
791 -> 793 ;
794 [label="gini = 0.0\nsamples = 1\nvalue = [0, 1]"] ;
793 -> 794 ;
795 [label="gini = 0.0\nsamples = 2\nvalue = [2, 0]"] ;
793 -> 795 ;
796 [label="gini = 0.0\nsamples = 1\nvalue = [0, 1]"] ;
790 -> 796 ;
797 [label="gini = 0.0\nsamples = 2\nvalue = [2, 0]"] ;
725 -> 797 ;
798 [label="X[12] <= 3.5\ngini = 0.423\nsamples = 23\nvalue = [7, 16]"] ;
690 -> 798 ;
799 [label="X[0] <= 43.5\ngini = 0.278\nsamples = 6\nvalue = [5, 1]"] ;
798 -> 799 ;
800 [label="gini = 0.0\nsamples = 5\nvalue = [5, 0]"] ;
799 -> 800 ;
801 [label="gini = 0.0\nsamples = 1\nvalue = [0, 1]"] ;
799 -> 801 ;
802 [label="X[18] <= 0.896\ngini = 0.208\nsamples = 17\nvalue = [2, 15]"] ;
798 -> 802 ;
803 [label="gini = 0.0\nsamples = 14\nvalue = [0, 14]"] ;
802 -> 803 ;
804 [label="X[9] <= 2.5\ngini = 0.444\nsamples = 3\nvalue = [2, 1]"] ;
802 -> 804 ;
805 [label="gini = 0.0\nsamples = 2\nvalue = [2, 0]"] ;
804 -> 805 ;
806 [label="gini = 0.0\nsamples = 1\nvalue = [0, 1]"] ;
804 -> 806 ;
807 [label="gini = 0.0\nsamples = 1\nvalue = [1, 0]"] ;
689 -> 807 ;
808 [label="X[16] <= 93.009\ngini = 0.132\nsamples = 155\nvalue = [11, 144]"] ;
688 -> 808 ;
809 [label="X[3] <= 4.0\ngini = 0.271\nsamples = 31\nvalue = [5, 26]"] ;
808 -> 809 ;
810 [label="X[0] <= 41.5\ngini = 0.444\nsamples = 15\nvalue = [5, 10]"] ;
809 -> 810 ;
811 [label="X[3] <= 2.5\ngini = 0.375\nsamples = 4\nvalue = [3, 1]"] ;
810 -> 811 ;
812 [label="gini = 0.0\nsamples = 1\nvalue = [0, 1]"] ;
811 -> 812 ;
813 [label="gini = 0.0\nsamples = 3\nvalue = [3, 0]"] ;
811 -> 813 ;
814 [label="X[10] <= 469.5\ngini = 0.298\nsamples = 11\nvalue = [2, 9]"] ;
810 -> 814 ;
815 [label="gini = 0.0\nsamples = 1\nvalue = [1, 0]"] ;
814 -> 815 ;
816 [label="X[10] <= 747.0\ngini = 0.18\nsamples = 10\nvalue = [1, 9]"] ;
814 -> 816 ;
817 [label="gini = 0.0\nsamples = 8\nvalue = [0, 8]"] ;
816 -> 817 ;
818 [label="X[2] <= 0.5\ngini = 0.5\nsamples = 2\nvalue = [1, 1]"] ;
816 -> 818 ;
819 [label="gini = 0.0\nsamples = 1\nvalue = [0, 1]"] ;
818 -> 819 ;
820 [label="gini = 0.0\nsamples = 1\nvalue = [1, 0]"] ;
818 -> 820 ;
821 [label="gini = 0.0\nsamples = 16\nvalue = [0, 16]"] ;
809 -> 821 ;
822 [label="X[10] <= 1478.5\ngini = 0.092\nsamples = 124\nvalue = [6, 118]"] ;
808 -> 822 ;
823 [label="X[0] <= 24.5\ngini = 0.079\nsamples = 122\nvalue = [5, 117]"] ;
822 -> 823 ;
824 [label="X[9] <= 3.5\ngini = 0.32\nsamples = 10\nvalue = [2, 8]"] ;
823 -> 824 ;
825 [label="X[17] <= -44.9\ngini = 0.198\nsamples = 9\nvalue = [1, 8]"] ;
824 -> 825 ;
826 [label="X[10] <= 758.5\ngini = 0.444\nsamples = 3\nvalue = [1, 2]"] ;
825 -> 826 ;
827 [label="gini = 0.0\nsamples = 1\nvalue = [1, 0]"] ;
826 -> 827 ;
828 [label="gini = 0.0\nsamples = 2\nvalue = [0, 2]"] ;
826 -> 828 ;
829 [label="gini = 0.0\nsamples = 6\nvalue = [0, 6]"] ;
825 -> 829 ;
830 [label="gini = 0.0\nsamples = 1\nvalue = [1, 0]"] ;
824 -> 830 ;
831 [label="X[10] <= 703.0\ngini = 0.052\nsamples = 112\nvalue = [3, 109]"] ;
823 -> 831 ;
832 [label="gini = 0.0\nsamples = 76\nvalue = [0, 76]"] ;
831 -> 832 ;
833 [label="X[10] <= 707.0\ngini = 0.153\nsamples = 36\nvalue = [3, 33]"] ;
831 -> 833 ;
834 [label="X[1] <= 4.5\ngini = 0.5\nsamples = 2\nvalue = [1, 1]"] ;
833 -> 834 ;
835 [label="gini = 0.0\nsamples = 1\nvalue = [0, 1]"] ;
834 -> 835 ;
836 [label="gini = 0.0\nsamples = 1\nvalue = [1, 0]"] ;
834 -> 836 ;
837 [label="X[13] <= 3.5\ngini = 0.111\nsamples = 34\nvalue = [2, 32]"] ;
833 -> 837 ;
838 [label="X[13] <= 2.5\ngini = 0.061\nsamples = 32\nvalue = [1, 31]"] ;
837 -> 838 ;
839 [label="gini = 0.0\nsamples = 26\nvalue = [0, 26]"] ;
838 -> 839 ;
840 [label="X[17] <= -40.15\ngini = 0.278\nsamples = 6\nvalue = [1, 5]"] ;
838 -> 840 ;
841 [label="X[19] <= 4977.6\ngini = 0.5\nsamples = 2\nvalue = [1, 1]"] ;
840 -> 841 ;
842 [label="gini = 0.0\nsamples = 1\nvalue = [0, 1]"] ;
841 -> 842 ;
843 [label="gini = 0.0\nsamples = 1\nvalue = [1, 0]"] ;
841 -> 843 ;
844 [label="gini = 0.0\nsamples = 4\nvalue = [0, 4]"] ;
840 -> 844 ;
845 [label="X[19] <= 4977.6\ngini = 0.5\nsamples = 2\nvalue = [1, 1]"] ;
837 -> 845 ;
846 [label="gini = 0.0\nsamples = 1\nvalue = [0, 1]"] ;
845 -> 846 ;
847 [label="gini = 0.0\nsamples = 1\nvalue = [1, 0]"] ;
845 -> 847 ;
848 [label="X[8] <= 5.5\ngini = 0.5\nsamples = 2\nvalue = [1, 1]"] ;
822 -> 848 ;
849 [label="gini = 0.0\nsamples = 1\nvalue = [1, 0]"] ;
848 -> 849 ;
850 [label="gini = 0.0\nsamples = 1\nvalue = [0, 1]"] ;
848 -> 850 ;
851 [label="X[13] <= 1.5\ngini = 0.49\nsamples = 7\nvalue = [3, 4]"] ;
687 -> 851 ;
852 [label="gini = 0.0\nsamples = 3\nvalue = [3, 0]"] ;
851 -> 852 ;
853 [label="gini = 0.0\nsamples = 4\nvalue = [0, 4]"] ;
851 -> 853 ;
854 [label="gini = 0.0\nsamples = 1\nvalue = [1, 0]"] ;
664 -> 854 ;
855 [label="X[13] <= 3.5\ngini = 0.382\nsamples = 171\nvalue = [44, 127]"] ;
599 -> 855 ;
856 [label="X[1] <= 10.5\ngini = 0.374\nsamples = 169\nvalue = [42, 127]"] ;
855 -> 856 ;
857 [label="X[18] <= 0.865\ngini = 0.364\nsamples = 167\nvalue = [40, 127]"] ;
856 -> 857 ;
858 [label="X[10] <= 345.0\ngini = 0.228\nsamples = 61\nvalue = [8, 53]"] ;
857 -> 858 ;
859 [label="gini = 0.0\nsamples = 31\nvalue = [0, 31]"] ;
858 -> 859 ;
860 [label="X[10] <= 364.5\ngini = 0.391\nsamples = 30\nvalue = [8, 22]"] ;
858 -> 860 ;
861 [label="gini = 0.0\nsamples = 2\nvalue = [2, 0]"] ;
860 -> 861 ;
862 [label="X[18] <= 0.703\ngini = 0.337\nsamples = 28\nvalue = [6, 22]"] ;
860 -> 862 ;
863 [label="gini = 0.0\nsamples = 1\nvalue = [1, 0]"] ;
862 -> 863 ;
864 [label="X[10] <= 913.0\ngini = 0.302\nsamples = 27\nvalue = [5, 22]"] ;
862 -> 864 ;
865 [label="X[1] <= 3.5\ngini = 0.227\nsamples = 23\nvalue = [3, 20]"] ;
864 -> 865 ;
866 [label="X[0] <= 56.0\ngini = 0.375\nsamples = 12\nvalue = [3, 9]"] ;
865 -> 866 ;
867 [label="X[9] <= 0.5\ngini = 0.198\nsamples = 9\nvalue = [1, 8]"] ;
866 -> 867 ;
868 [label="gini = 0.0\nsamples = 1\nvalue = [1, 0]"] ;
867 -> 868 ;
869 [label="gini = 0.0\nsamples = 8\nvalue = [0, 8]"] ;
867 -> 869 ;
870 [label="X[10] <= 405.0\ngini = 0.444\nsamples = 3\nvalue = [2, 1]"] ;
866 -> 870 ;
871 [label="gini = 0.0\nsamples = 1\nvalue = [1, 0]"] ;
870 -> 871 ;
872 [label="X[10] <= 461.5\ngini = 0.5\nsamples = 2\nvalue = [1, 1]"] ;
870 -> 872 ;
873 [label="gini = 0.0\nsamples = 1\nvalue = [0, 1]"] ;
872 -> 873 ;
874 [label="gini = 0.0\nsamples = 1\nvalue = [1, 0]"] ;
872 -> 874 ;
875 [label="gini = 0.0\nsamples = 11\nvalue = [0, 11]"] ;
865 -> 875 ;
876 [label="X[18] <= 0.713\ngini = 0.5\nsamples = 4\nvalue = [2, 2]"] ;
864 -> 876 ;
877 [label="gini = 0.0\nsamples = 2\nvalue = [0, 2]"] ;
876 -> 877 ;
878 [label="gini = 0.0\nsamples = 2\nvalue = [2, 0]"] ;
876 -> 878 ;
879 [label="X[0] <= 64.5\ngini = 0.422\nsamples = 106\nvalue = [32, 74]"] ;
857 -> 879 ;
880 [label="X[0] <= 21.5\ngini = 0.405\nsamples = 103\nvalue = [29, 74]"] ;
879 -> 880 ;
881 [label="gini = 0.0\nsamples = 2\nvalue = [2, 0]"] ;
880 -> 881 ;
882 [label="X[11] <= 1.5\ngini = 0.392\nsamples = 101\nvalue = [27, 74]"] ;
880 -> 882 ;
883 [label="X[9] <= 3.5\ngini = 0.461\nsamples = 50\nvalue = [18, 32]"] ;
882 -> 883 ;
884 [label="X[10] <= 395.5\ngini = 0.414\nsamples = 41\nvalue = [12, 29]"] ;
883 -> 884 ;
885 [label="X[10] <= 324.5\ngini = 0.471\nsamples = 29\nvalue = [11, 18]"] ;
884 -> 885 ;
886 [label="X[18] <= 0.875\ngini = 0.426\nsamples = 26\nvalue = [8, 18]"] ;
885 -> 886 ;
887 [label="gini = 0.0\nsamples = 1\nvalue = [1, 0]"] ;
886 -> 887 ;
888 [label="X[4] <= 0.5\ngini = 0.403\nsamples = 25\nvalue = [7, 18]"] ;
886 -> 888 ;
889 [label="X[9] <= 0.5\ngini = 0.375\nsamples = 24\nvalue = [6, 18]"] ;
888 -> 889 ;
890 [label="gini = 0.0\nsamples = 5\nvalue = [0, 5]"] ;
889 -> 890 ;
891 [label="X[0] <= 29.5\ngini = 0.432\nsamples = 19\nvalue = [6, 13]"] ;
889 -> 891 ;
892 [label="X[12] <= 3.5\ngini = 0.48\nsamples = 5\nvalue = [3, 2]"] ;
891 -> 892 ;
893 [label="gini = 0.0\nsamples = 2\nvalue = [2, 0]"] ;
892 -> 893 ;
894 [label="X[5] <= 1.0\ngini = 0.444\nsamples = 3\nvalue = [1, 2]"] ;
892 -> 894 ;
895 [label="gini = 0.0\nsamples = 2\nvalue = [0, 2]"] ;
894 -> 895 ;
896 [label="gini = 0.0\nsamples = 1\nvalue = [1, 0]"] ;
894 -> 896 ;
897 [label="X[12] <= 9.5\ngini = 0.337\nsamples = 14\nvalue = [3, 11]"] ;
891 -> 897 ;
898 [label="X[18] <= 1.05\ngini = 0.26\nsamples = 13\nvalue = [2, 11]"] ;
897 -> 898 ;
899 [label="X[12] <= 3.5\ngini = 0.408\nsamples = 7\nvalue = [2, 5]"] ;
898 -> 899 ;
900 [label="gini = 0.0\nsamples = 1\nvalue = [1, 0]"] ;
899 -> 900 ;
901 [label="X[1] <= 6.0\ngini = 0.278\nsamples = 6\nvalue = [1, 5]"] ;
899 -> 901 ;
902 [label="gini = 0.0\nsamples = 4\nvalue = [0, 4]"] ;
901 -> 902 ;
903 [label="X[0] <= 38.0\ngini = 0.5\nsamples = 2\nvalue = [1, 1]"] ;
901 -> 903 ;
904 [label="gini = 0.0\nsamples = 1\nvalue = [0, 1]"] ;
903 -> 904 ;
905 [label="gini = 0.0\nsamples = 1\nvalue = [1, 0]"] ;
903 -> 905 ;
906 [label="gini = 0.0\nsamples = 6\nvalue = [0, 6]"] ;
898 -> 906 ;
907 [label="gini = 0.0\nsamples = 1\nvalue = [1, 0]"] ;
897 -> 907 ;
908 [label="gini = 0.0\nsamples = 1\nvalue = [1, 0]"] ;
888 -> 908 ;
909 [label="gini = 0.0\nsamples = 3\nvalue = [3, 0]"] ;
885 -> 909 ;
910 [label="X[18] <= 1.264\ngini = 0.153\nsamples = 12\nvalue = [1, 11]"] ;
884 -> 910 ;
911 [label="gini = 0.0\nsamples = 11\nvalue = [0, 11]"] ;
910 -> 911 ;
912 [label="gini = 0.0\nsamples = 1\nvalue = [1, 0]"] ;
910 -> 912 ;
913 [label="X[1] <= 5.5\ngini = 0.444\nsamples = 9\nvalue = [6, 3]"] ;
883 -> 913 ;
914 [label="gini = 0.0\nsamples = 6\nvalue = [6, 0]"] ;
913 -> 914 ;
915 [label="gini = 0.0\nsamples = 3\nvalue = [0, 3]"] ;
913 -> 915 ;
916 [label="X[11] <= 2.5\ngini = 0.291\nsamples = 51\nvalue = [9, 42]"] ;
882 -> 916 ;
917 [label="X[12] <= 14.0\ngini = 0.153\nsamples = 36\nvalue = [3, 33]"] ;
916 -> 917 ;
918 [label="X[10] <= 1085.5\ngini = 0.111\nsamples = 34\nvalue = [2, 32]"] ;
917 -> 918 ;
919 [label="X[1] <= 8.5\ngini = 0.061\nsamples = 32\nvalue = [1, 31]"] ;
918 -> 919 ;
920 [label="gini = 0.0\nsamples = 30\nvalue = [0, 30]"] ;
919 -> 920 ;
921 [label="X[6] <= 1.0\ngini = 0.5\nsamples = 2\nvalue = [1, 1]"] ;
919 -> 921 ;
922 [label="gini = 0.0\nsamples = 1\nvalue = [1, 0]"] ;
921 -> 922 ;
923 [label="gini = 0.0\nsamples = 1\nvalue = [0, 1]"] ;
921 -> 923 ;
924 [label="X[6] <= 1.0\ngini = 0.5\nsamples = 2\nvalue = [1, 1]"] ;
918 -> 924 ;
925 [label="gini = 0.0\nsamples = 1\nvalue = [0, 1]"] ;
924 -> 925 ;
926 [label="gini = 0.0\nsamples = 1\nvalue = [1, 0]"] ;
924 -> 926 ;
927 [label="X[10] <= 459.5\ngini = 0.5\nsamples = 2\nvalue = [1, 1]"] ;
917 -> 927 ;
928 [label="gini = 0.0\nsamples = 1\nvalue = [1, 0]"] ;
927 -> 928 ;
929 [label="gini = 0.0\nsamples = 1\nvalue = [0, 1]"] ;
927 -> 929 ;
930 [label="X[10] <= 286.5\ngini = 0.48\nsamples = 15\nvalue = [6, 9]"] ;
916 -> 930 ;
931 [label="gini = 0.0\nsamples = 4\nvalue = [0, 4]"] ;
930 -> 931 ;
932 [label="X[10] <= 634.5\ngini = 0.496\nsamples = 11\nvalue = [6, 5]"] ;
930 -> 932 ;
933 [label="X[1] <= 0.5\ngini = 0.375\nsamples = 8\nvalue = [6, 2]"] ;
932 -> 933 ;
934 [label="X[9] <= 2.5\ngini = 0.444\nsamples = 3\nvalue = [1, 2]"] ;
933 -> 934 ;
935 [label="gini = 0.0\nsamples = 2\nvalue = [0, 2]"] ;
934 -> 935 ;
936 [label="gini = 0.0\nsamples = 1\nvalue = [1, 0]"] ;
934 -> 936 ;
937 [label="gini = 0.0\nsamples = 5\nvalue = [5, 0]"] ;
933 -> 937 ;
938 [label="gini = 0.0\nsamples = 3\nvalue = [0, 3]"] ;
932 -> 938 ;
939 [label="gini = 0.0\nsamples = 3\nvalue = [3, 0]"] ;
879 -> 939 ;
940 [label="gini = 0.0\nsamples = 2\nvalue = [2, 0]"] ;
856 -> 940 ;
941 [label="gini = 0.0\nsamples = 2\nvalue = [2, 0]"] ;
855 -> 941 ;
942 [label="X[2] <= 0.5\ngini = 0.444\nsamples = 6\nvalue = [4, 2]"] ;
598 -> 942 ;
943 [label="gini = 0.0\nsamples = 2\nvalue = [0, 2]"] ;
942 -> 943 ;
944 [label="gini = 0.0\nsamples = 4\nvalue = [4, 0]"] ;
942 -> 944 ;
945 [label="X[10] <= 250.5\ngini = 0.499\nsamples = 2173\nvalue = [1027, 1146]"] ;
597 -> 945 ;
946 [label="X[10] <= 198.5\ngini = 0.478\nsamples = 700\nvalue = [424, 276]"] ;
945 -> 946 ;
947 [label="X[18] <= 0.698\ngini = 0.441\nsamples = 256\nvalue = [172, 84]"] ;
946 -> 947 ;
948 [label="X[18] <= 0.636\ngini = 0.492\nsamples = 32\nvalue = [14, 18]"] ;
947 -> 948 ;
949 [label="X[9] <= 3.5\ngini = 0.278\nsamples = 6\nvalue = [5, 1]"] ;
948 -> 949 ;
950 [label="gini = 0.0\nsamples = 5\nvalue = [5, 0]"] ;
949 -> 950 ;
951 [label="gini = 0.0\nsamples = 1\nvalue = [0, 1]"] ;
949 -> 951 ;
952 [label="X[1] <= 0.5\ngini = 0.453\nsamples = 26\nvalue = [9, 17]"] ;
948 -> 952 ;
953 [label="X[14] <= 0.5\ngini = 0.18\nsamples = 10\nvalue = [1, 9]"] ;
952 -> 953 ;
954 [label="X[18] <= 0.646\ngini = 0.5\nsamples = 2\nvalue = [1, 1]"] ;
953 -> 954 ;
955 [label="gini = 0.0\nsamples = 1\nvalue = [0, 1]"] ;
954 -> 955 ;
956 [label="gini = 0.0\nsamples = 1\nvalue = [1, 0]"] ;
954 -> 956 ;
957 [label="gini = 0.0\nsamples = 8\nvalue = [0, 8]"] ;
953 -> 957 ;
958 [label="X[3] <= 2.0\ngini = 0.5\nsamples = 16\nvalue = [8, 8]"] ;
952 -> 958 ;
959 [label="gini = 0.0\nsamples = 3\nvalue = [3, 0]"] ;
958 -> 959 ;
960 [label="X[0] <= 26.5\ngini = 0.473\nsamples = 13\nvalue = [5, 8]"] ;
958 -> 960 ;
961 [label="gini = 0.0\nsamples = 2\nvalue = [2, 0]"] ;
960 -> 961 ;
962 [label="X[10] <= 193.5\ngini = 0.397\nsamples = 11\nvalue = [3, 8]"] ;
960 -> 962 ;
963 [label="X[9] <= 1.5\ngini = 0.198\nsamples = 9\nvalue = [1, 8]"] ;
962 -> 963 ;
964 [label="X[16] <= 93.559\ngini = 0.444\nsamples = 3\nvalue = [1, 2]"] ;
963 -> 964 ;
965 [label="gini = 0.0\nsamples = 1\nvalue = [1, 0]"] ;
964 -> 965 ;
966 [label="gini = 0.0\nsamples = 2\nvalue = [0, 2]"] ;
964 -> 966 ;
967 [label="gini = 0.0\nsamples = 6\nvalue = [0, 6]"] ;
963 -> 967 ;
968 [label="gini = 0.0\nsamples = 2\nvalue = [2, 0]"] ;
962 -> 968 ;
969 [label="X[18] <= 0.842\ngini = 0.416\nsamples = 224\nvalue = [158, 66]"] ;
947 -> 969 ;
970 [label="X[0] <= 67.0\ngini = 0.272\nsamples = 80\nvalue = [67, 13]"] ;
969 -> 970 ;
971 [label="X[4] <= 0.5\ngini = 0.213\nsamples = 66\nvalue = [58, 8]"] ;
970 -> 971 ;
972 [label="X[9] <= 0.5\ngini = 0.192\nsamples = 65\nvalue = [58, 7]"] ;
971 -> 972 ;
973 [label="X[0] <= 30.5\ngini = 0.469\nsamples = 8\nvalue = [5, 3]"] ;
972 -> 973 ;
974 [label="gini = 0.0\nsamples = 3\nvalue = [0, 3]"] ;
973 -> 974 ;
975 [label="gini = 0.0\nsamples = 5\nvalue = [5, 0]"] ;
973 -> 975 ;
976 [label="X[18] <= 0.723\ngini = 0.131\nsamples = 57\nvalue = [53, 4]"] ;
972 -> 976 ;
977 [label="X[2] <= 0.5\ngini = 0.298\nsamples = 22\nvalue = [18, 4]"] ;
976 -> 977 ;
978 [label="gini = 0.0\nsamples = 1\nvalue = [0, 1]"] ;
977 -> 978 ;
979 [label="X[0] <= 39.0\ngini = 0.245\nsamples = 21\nvalue = [18, 3]"] ;
977 -> 979 ;
980 [label="X[0] <= 34.5\ngini = 0.397\nsamples = 11\nvalue = [8, 3]"] ;
979 -> 980 ;
981 [label="X[11] <= 1.5\ngini = 0.198\nsamples = 9\nvalue = [8, 1]"] ;
980 -> 981 ;
982 [label="X[8] <= 5.5\ngini = 0.5\nsamples = 2\nvalue = [1, 1]"] ;
981 -> 982 ;
983 [label="gini = 0.0\nsamples = 1\nvalue = [1, 0]"] ;
982 -> 983 ;
984 [label="gini = 0.0\nsamples = 1\nvalue = [0, 1]"] ;
982 -> 984 ;
985 [label="gini = 0.0\nsamples = 7\nvalue = [7, 0]"] ;
981 -> 985 ;
986 [label="gini = 0.0\nsamples = 2\nvalue = [0, 2]"] ;
980 -> 986 ;
987 [label="gini = 0.0\nsamples = 10\nvalue = [10, 0]"] ;
979 -> 987 ;
988 [label="gini = 0.0\nsamples = 35\nvalue = [35, 0]"] ;
976 -> 988 ;
989 [label="gini = 0.0\nsamples = 1\nvalue = [0, 1]"] ;
971 -> 989 ;
990 [label="X[18] <= 0.764\ngini = 0.459\nsamples = 14\nvalue = [9, 5]"] ;
970 -> 990 ;
991 [label="X[0] <= 72.5\ngini = 0.375\nsamples = 12\nvalue = [9, 3]"] ;
990 -> 991 ;
992 [label="X[3] <= 4.0\ngini = 0.48\nsamples = 5\nvalue = [2, 3]"] ;
991 -> 992 ;
993 [label="gini = 0.0\nsamples = 3\nvalue = [0, 3]"] ;
992 -> 993 ;
994 [label="gini = 0.0\nsamples = 2\nvalue = [2, 0]"] ;
992 -> 994 ;
995 [label="gini = 0.0\nsamples = 7\nvalue = [7, 0]"] ;
991 -> 995 ;
996 [label="gini = 0.0\nsamples = 2\nvalue = [0, 2]"] ;
990 -> 996 ;
997 [label="X[0] <= 75.0\ngini = 0.465\nsamples = 144\nvalue = [91, 53]"] ;
969 -> 997 ;
998 [label="X[0] <= 49.0\ngini = 0.458\nsamples = 141\nvalue = [91, 50]"] ;
997 -> 998 ;
999 [label="X[2] <= 1.5\ngini = 0.484\nsamples = 102\nvalue = [60, 42]"] ;
998 -> 999 ;
1000 [label="X[7] <= 0.5\ngini = 0.498\nsamples = 45\nvalue = [21, 24]"] ;
999 -> 1000 ;
1001 [label="X[18] <= 0.891\ngini = 0.451\nsamples = 35\nvalue = [12, 23]"] ;
1000 -> 1001 ;
1002 [label="X[19] <= 4977.6\ngini = 0.142\nsamples = 13\nvalue = [1, 12]"] ;
1001 -> 1002 ;
1003 [label="X[1] <= 8.0\ngini = 0.375\nsamples = 4\nvalue = [1, 3]"] ;
1002 -> 1003 ;
1004 [label="gini = 0.0\nsamples = 3\nvalue = [0, 3]"] ;
1003 -> 1004 ;
1005 [label="gini = 0.0\nsamples = 1\nvalue = [1, 0]"] ;
1003 -> 1005 ;
1006 [label="gini = 0.0\nsamples = 9\nvalue = [0, 9]"] ;
1002 -> 1006 ;
1007 [label="X[18] <= 1.044\ngini = 0.5\nsamples = 22\nvalue = [11, 11]"] ;
1001 -> 1007 ;
1008 [label="gini = 0.0\nsamples = 7\nvalue = [7, 0]"] ;
1007 -> 1008 ;
1009 [label="X[1] <= 8.5\ngini = 0.391\nsamples = 15\nvalue = [4, 11]"] ;
1007 -> 1009 ;
1010 [label="X[10] <= 176.0\ngini = 0.18\nsamples = 10\nvalue = [1, 9]"] ;
1009 -> 1010 ;
1011 [label="X[9] <= 0.5\ngini = 0.5\nsamples = 2\nvalue = [1, 1]"] ;
1010 -> 1011 ;
1012 [label="gini = 0.0\nsamples = 1\nvalue = [0, 1]"] ;
1011 -> 1012 ;
1013 [label="gini = 0.0\nsamples = 1\nvalue = [1, 0]"] ;
1011 -> 1013 ;
1014 [label="gini = 0.0\nsamples = 8\nvalue = [0, 8]"] ;
1010 -> 1014 ;
1015 [label="X[3] <= 5.5\ngini = 0.48\nsamples = 5\nvalue = [3, 2]"] ;
1009 -> 1015 ;
1016 [label="gini = 0.0\nsamples = 3\nvalue = [3, 0]"] ;
1015 -> 1016 ;
1017 [label="gini = 0.0\nsamples = 2\nvalue = [0, 2]"] ;
1015 -> 1017 ;
1018 [label="X[2] <= 0.5\ngini = 0.18\nsamples = 10\nvalue = [9, 1]"] ;
1000 -> 1018 ;
1019 [label="X[16] <= 93.334\ngini = 0.5\nsamples = 2\nvalue = [1, 1]"] ;
1018 -> 1019 ;
1020 [label="gini = 0.0\nsamples = 1\nvalue = [0, 1]"] ;
1019 -> 1020 ;
1021 [label="gini = 0.0\nsamples = 1\nvalue = [1, 0]"] ;
1019 -> 1021 ;
1022 [label="gini = 0.0\nsamples = 8\nvalue = [8, 0]"] ;
1018 -> 1022 ;
1023 [label="X[18] <= 1.261\ngini = 0.432\nsamples = 57\nvalue = [39, 18]"] ;
999 -> 1023 ;
1024 [label="X[16] <= 94.207\ngini = 0.469\nsamples = 48\nvalue = [30, 18]"] ;
1023 -> 1024 ;
1025 [label="X[10] <= 193.5\ngini = 0.496\nsamples = 35\nvalue = [19, 16]"] ;
1024 -> 1025 ;
1026 [label="X[10] <= 189.0\ngini = 0.48\nsamples = 30\nvalue = [18, 12]"] ;
1025 -> 1026 ;
1027 [label="X[1] <= 8.5\ngini = 0.499\nsamples = 23\nvalue = [11, 12]"] ;
1026 -> 1027 ;
1028 [label="X[5] <= 1.0\ngini = 0.48\nsamples = 20\nvalue = [8, 12]"] ;
1027 -> 1028 ;
1029 [label="X[11] <= 1.5\ngini = 0.198\nsamples = 9\nvalue = [1, 8]"] ;
1028 -> 1029 ;
1030 [label="gini = 0.0\nsamples = 7\nvalue = [0, 7]"] ;
1029 -> 1030 ;
1031 [label="X[9] <= 3.5\ngini = 0.5\nsamples = 2\nvalue = [1, 1]"] ;
1029 -> 1031 ;
1032 [label="gini = 0.0\nsamples = 1\nvalue = [0, 1]"] ;
1031 -> 1032 ;
1033 [label="gini = 0.0\nsamples = 1\nvalue = [1, 0]"] ;
1031 -> 1033 ;
1034 [label="X[11] <= 1.5\ngini = 0.463\nsamples = 11\nvalue = [7, 4]"] ;
1028 -> 1034 ;
1035 [label="gini = 0.0\nsamples = 5\nvalue = [5, 0]"] ;
1034 -> 1035 ;
1036 [label="X[0] <= 26.5\ngini = 0.444\nsamples = 6\nvalue = [2, 4]"] ;
1034 -> 1036 ;
1037 [label="X[10] <= 178.5\ngini = 0.444\nsamples = 3\nvalue = [2, 1]"] ;
1036 -> 1037 ;
1038 [label="gini = 0.0\nsamples = 1\nvalue = [0, 1]"] ;
1037 -> 1038 ;
1039 [label="gini = 0.0\nsamples = 2\nvalue = [2, 0]"] ;
1037 -> 1039 ;
1040 [label="gini = 0.0\nsamples = 3\nvalue = [0, 3]"] ;
1036 -> 1040 ;
1041 [label="gini = 0.0\nsamples = 3\nvalue = [3, 0]"] ;
1027 -> 1041 ;
1042 [label="gini = 0.0\nsamples = 7\nvalue = [7, 0]"] ;
1026 -> 1042 ;
1043 [label="X[7] <= 0.5\ngini = 0.32\nsamples = 5\nvalue = [1, 4]"] ;
1025 -> 1043 ;
1044 [label="gini = 0.0\nsamples = 4\nvalue = [0, 4]"] ;
1043 -> 1044 ;
1045 [label="gini = 0.0\nsamples = 1\nvalue = [1, 0]"] ;
1043 -> 1045 ;
1046 [label="X[10] <= 197.5\ngini = 0.26\nsamples = 13\nvalue = [11, 2]"] ;
1024 -> 1046 ;
1047 [label="X[9] <= 3.5\ngini = 0.153\nsamples = 12\nvalue = [11, 1]"] ;
1046 -> 1047 ;
1048 [label="gini = 0.0\nsamples = 10\nvalue = [10, 0]"] ;
1047 -> 1048 ;
1049 [label="X[3] <= 4.0\ngini = 0.5\nsamples = 2\nvalue = [1, 1]"] ;
1047 -> 1049 ;
1050 [label="gini = 0.0\nsamples = 1\nvalue = [1, 0]"] ;
1049 -> 1050 ;
1051 [label="gini = 0.0\nsamples = 1\nvalue = [0, 1]"] ;
1049 -> 1051 ;
1052 [label="gini = 0.0\nsamples = 1\nvalue = [0, 1]"] ;
1046 -> 1052 ;
1053 [label="gini = 0.0\nsamples = 9\nvalue = [9, 0]"] ;
1023 -> 1053 ;
1054 [label="X[9] <= 1.5\ngini = 0.326\nsamples = 39\nvalue = [31, 8]"] ;
998 -> 1054 ;
1055 [label="X[10] <= 181.5\ngini = 0.465\nsamples = 19\nvalue = [12, 7]"] ;
1054 -> 1055 ;
1056 [label="gini = 0.0\nsamples = 6\nvalue = [6, 0]"] ;
1055 -> 1056 ;
1057 [label="X[0] <= 68.5\ngini = 0.497\nsamples = 13\nvalue = [6, 7]"] ;
1055 -> 1057 ;
1058 [label="X[19] <= 4977.6\ngini = 0.42\nsamples = 10\nvalue = [3, 7]"] ;
1057 -> 1058 ;
1059 [label="X[5] <= 1.0\ngini = 0.375\nsamples = 4\nvalue = [3, 1]"] ;
1058 -> 1059 ;
1060 [label="gini = 0.0\nsamples = 1\nvalue = [0, 1]"] ;
1059 -> 1060 ;
1061 [label="gini = 0.0\nsamples = 3\nvalue = [3, 0]"] ;
1059 -> 1061 ;
1062 [label="gini = 0.0\nsamples = 6\nvalue = [0, 6]"] ;
1058 -> 1062 ;
1063 [label="gini = 0.0\nsamples = 3\nvalue = [3, 0]"] ;
1057 -> 1063 ;
1064 [label="X[12] <= 512.0\ngini = 0.095\nsamples = 20\nvalue = [19, 1]"] ;
1054 -> 1064 ;
1065 [label="gini = 0.0\nsamples = 1\nvalue = [0, 1]"] ;
1064 -> 1065 ;
1066 [label="gini = 0.0\nsamples = 19\nvalue = [19, 0]"] ;
1064 -> 1066 ;
1067 [label="gini = 0.0\nsamples = 3\nvalue = [0, 3]"] ;
997 -> 1067 ;
1068 [label="X[13] <= 0.5\ngini = 0.491\nsamples = 444\nvalue = [252, 192]"] ;
946 -> 1068 ;
1069 [label="X[7] <= 0.5\ngini = 0.498\nsamples = 308\nvalue = [163, 145]"] ;
1068 -> 1069 ;
1070 [label="X[18] <= 0.721\ngini = 0.5\nsamples = 265\nvalue = [134, 131]"] ;
1069 -> 1070 ;
1071 [label="X[11] <= 1.5\ngini = 0.46\nsamples = 53\nvalue = [19, 34]"] ;
1070 -> 1071 ;
1072 [label="X[18] <= 0.637\ngini = 0.358\nsamples = 30\nvalue = [7, 23]"] ;
1071 -> 1072 ;
1073 [label="X[9] <= 2.5\ngini = 0.444\nsamples = 3\nvalue = [2, 1]"] ;
1072 -> 1073 ;
1074 [label="gini = 0.0\nsamples = 2\nvalue = [2, 0]"] ;
1073 -> 1074 ;
1075 [label="gini = 0.0\nsamples = 1\nvalue = [0, 1]"] ;
1073 -> 1075 ;
1076 [label="X[10] <= 208.5\ngini = 0.302\nsamples = 27\nvalue = [5, 22]"] ;
1072 -> 1076 ;
1077 [label="X[10] <= 201.5\ngini = 0.49\nsamples = 7\nvalue = [3, 4]"] ;
1076 -> 1077 ;
1078 [label="gini = 0.0\nsamples = 3\nvalue = [0, 3]"] ;
1077 -> 1078 ;
1079 [label="X[17] <= -34.7\ngini = 0.375\nsamples = 4\nvalue = [3, 1]"] ;
1077 -> 1079 ;
1080 [label="gini = 0.0\nsamples = 1\nvalue = [0, 1]"] ;
1079 -> 1080 ;
1081 [label="gini = 0.0\nsamples = 3\nvalue = [3, 0]"] ;
1079 -> 1081 ;
1082 [label="X[0] <= 72.0\ngini = 0.18\nsamples = 20\nvalue = [2, 18]"] ;
1076 -> 1082 ;
1083 [label="X[10] <= 244.5\ngini = 0.105\nsamples = 18\nvalue = [1, 17]"] ;
1082 -> 1083 ;
1084 [label="gini = 0.0\nsamples = 16\nvalue = [0, 16]"] ;
1083 -> 1084 ;
1085 [label="X[1] <= 0.5\ngini = 0.5\nsamples = 2\nvalue = [1, 1]"] ;
1083 -> 1085 ;
1086 [label="gini = 0.0\nsamples = 1\nvalue = [1, 0]"] ;
1085 -> 1086 ;
1087 [label="gini = 0.0\nsamples = 1\nvalue = [0, 1]"] ;
1085 -> 1087 ;
1088 [label="X[15] <= -1.75\ngini = 0.5\nsamples = 2\nvalue = [1, 1]"] ;
1082 -> 1088 ;
1089 [label="gini = 0.0\nsamples = 1\nvalue = [1, 0]"] ;
1088 -> 1089 ;
1090 [label="gini = 0.0\nsamples = 1\nvalue = [0, 1]"] ;
1088 -> 1090 ;
1091 [label="X[3] <= 2.5\ngini = 0.499\nsamples = 23\nvalue = [12, 11]"] ;
1071 -> 1091 ;
1092 [label="X[11] <= 4.5\ngini = 0.278\nsamples = 6\nvalue = [1, 5]"] ;
1091 -> 1092 ;
1093 [label="gini = 0.0\nsamples = 5\nvalue = [0, 5]"] ;
1092 -> 1093 ;
1094 [label="gini = 0.0\nsamples = 1\nvalue = [1, 0]"] ;
1092 -> 1094 ;
1095 [label="X[0] <= 31.0\ngini = 0.457\nsamples = 17\nvalue = [11, 6]"] ;
1091 -> 1095 ;
1096 [label="X[8] <= 3.0\ngini = 0.49\nsamples = 7\nvalue = [3, 4]"] ;
1095 -> 1096 ;
1097 [label="X[3] <= 6.5\ngini = 0.375\nsamples = 4\nvalue = [3, 1]"] ;
1096 -> 1097 ;
1098 [label="gini = 0.0\nsamples = 3\nvalue = [3, 0]"] ;
1097 -> 1098 ;
1099 [label="gini = 0.0\nsamples = 1\nvalue = [0, 1]"] ;
1097 -> 1099 ;
1100 [label="gini = 0.0\nsamples = 3\nvalue = [0, 3]"] ;
1096 -> 1100 ;
1101 [label="X[2] <= 0.5\ngini = 0.32\nsamples = 10\nvalue = [8, 2]"] ;
1095 -> 1101 ;
1102 [label="gini = 0.0\nsamples = 1\nvalue = [0, 1]"] ;
1101 -> 1102 ;
1103 [label="X[9] <= 3.5\ngini = 0.198\nsamples = 9\nvalue = [8, 1]"] ;
1101 -> 1103 ;
1104 [label="gini = 0.0\nsamples = 8\nvalue = [8, 0]"] ;
1103 -> 1104 ;
1105 [label="gini = 0.0\nsamples = 1\nvalue = [0, 1]"] ;
1103 -> 1105 ;
1106 [label="X[1] <= 5.5\ngini = 0.496\nsamples = 212\nvalue = [115, 97]"] ;
1070 -> 1106 ;
1107 [label="X[18] <= 0.877\ngini = 0.5\nsamples = 131\nvalue = [64, 67]"] ;
1106 -> 1107 ;
1108 [label="X[10] <= 234.0\ngini = 0.478\nsamples = 53\nvalue = [32, 21]"] ;
1107 -> 1108 ;
1109 [label="X[10] <= 205.5\ngini = 0.499\nsamples = 44\nvalue = [23, 21]"] ;
1108 -> 1109 ;
1110 [label="X[18] <= 0.86\ngini = 0.346\nsamples = 9\nvalue = [7, 2]"] ;
1109 -> 1110 ;
1111 [label="X[11] <= 5.0\ngini = 0.219\nsamples = 8\nvalue = [7, 1]"] ;
1110 -> 1111 ;
1112 [label="gini = 0.0\nsamples = 6\nvalue = [6, 0]"] ;
1111 -> 1112 ;
1113 [label="X[19] <= 5004.55\ngini = 0.5\nsamples = 2\nvalue = [1, 1]"] ;
1111 -> 1113 ;
1114 [label="gini = 0.0\nsamples = 1\nvalue = [1, 0]"] ;
1113 -> 1114 ;
1115 [label="gini = 0.0\nsamples = 1\nvalue = [0, 1]"] ;
1113 -> 1115 ;
1116 [label="gini = 0.0\nsamples = 1\nvalue = [0, 1]"] ;
1110 -> 1116 ;
1117 [label="X[9] <= 3.5\ngini = 0.496\nsamples = 35\nvalue = [16, 19]"] ;
1109 -> 1117 ;
1118 [label="X[10] <= 220.0\ngini = 0.453\nsamples = 26\nvalue = [9, 17]"] ;
1117 -> 1118 ;
1119 [label="X[2] <= 0.5\ngini = 0.219\nsamples = 16\nvalue = [2, 14]"] ;
1118 -> 1119 ;
1120 [label="X[10] <= 210.5\ngini = 0.444\nsamples = 3\nvalue = [2, 1]"] ;
1119 -> 1120 ;
1121 [label="gini = 0.0\nsamples = 1\nvalue = [0, 1]"] ;
1120 -> 1121 ;
1122 [label="gini = 0.0\nsamples = 2\nvalue = [2, 0]"] ;
1120 -> 1122 ;
1123 [label="gini = 0.0\nsamples = 13\nvalue = [0, 13]"] ;
1119 -> 1123 ;
1124 [label="X[18] <= 0.855\ngini = 0.42\nsamples = 10\nvalue = [7, 3]"] ;
1118 -> 1124 ;
1125 [label="X[10] <= 227.5\ngini = 0.5\nsamples = 6\nvalue = [3, 3]"] ;
1124 -> 1125 ;
1126 [label="gini = 0.0\nsamples = 2\nvalue = [2, 0]"] ;
1125 -> 1126 ;
1127 [label="X[9] <= 1.5\ngini = 0.375\nsamples = 4\nvalue = [1, 3]"] ;
1125 -> 1127 ;
1128 [label="gini = 0.0\nsamples = 3\nvalue = [0, 3]"] ;
1127 -> 1128 ;
1129 [label="gini = 0.0\nsamples = 1\nvalue = [1, 0]"] ;
1127 -> 1129 ;
1130 [label="gini = 0.0\nsamples = 4\nvalue = [4, 0]"] ;
1124 -> 1130 ;
1131 [label="X[10] <= 224.0\ngini = 0.346\nsamples = 9\nvalue = [7, 2]"] ;
1117 -> 1131 ;
1132 [label="gini = 0.0\nsamples = 7\nvalue = [7, 0]"] ;
1131 -> 1132 ;
1133 [label="gini = 0.0\nsamples = 2\nvalue = [0, 2]"] ;
1131 -> 1133 ;
1134 [label="gini = 0.0\nsamples = 9\nvalue = [9, 0]"] ;
1108 -> 1134 ;
1135 [label="X[10] <= 236.5\ngini = 0.484\nsamples = 78\nvalue = [32, 46]"] ;
1107 -> 1135 ;
1136 [label="X[18] <= 1.03\ngini = 0.5\nsamples = 53\nvalue = [27, 26]"] ;
1135 -> 1136 ;
1137 [label="X[3] <= 1.0\ngini = 0.432\nsamples = 19\nvalue = [6, 13]"] ;
1136 -> 1137 ;
1138 [label="gini = 0.0\nsamples = 2\nvalue = [2, 0]"] ;
1137 -> 1138 ;
1139 [label="X[9] <= 3.5\ngini = 0.36\nsamples = 17\nvalue = [4, 13]"] ;
1137 -> 1139 ;
1140 [label="X[10] <= 233.5\ngini = 0.165\nsamples = 11\nvalue = [1, 10]"] ;
1139 -> 1140 ;
1141 [label="gini = 0.0\nsamples = 10\nvalue = [0, 10]"] ;
1140 -> 1141 ;
1142 [label="gini = 0.0\nsamples = 1\nvalue = [1, 0]"] ;
1140 -> 1142 ;
1143 [label="X[11] <= 1.5\ngini = 0.5\nsamples = 6\nvalue = [3, 3]"] ;
1139 -> 1143 ;
1144 [label="gini = 0.0\nsamples = 2\nvalue = [2, 0]"] ;
1143 -> 1144 ;
1145 [label="X[10] <= 224.0\ngini = 0.375\nsamples = 4\nvalue = [1, 3]"] ;
1143 -> 1145 ;
1146 [label="gini = 0.0\nsamples = 3\nvalue = [0, 3]"] ;
1145 -> 1146 ;
1147 [label="gini = 0.0\nsamples = 1\nvalue = [1, 0]"] ;
1145 -> 1147 ;
1148 [label="X[2] <= 0.5\ngini = 0.472\nsamples = 34\nvalue = [21, 13]"] ;
1136 -> 1148 ;
1149 [label="gini = 0.0\nsamples = 2\nvalue = [0, 2]"] ;
1148 -> 1149 ;
1150 [label="X[11] <= 3.5\ngini = 0.451\nsamples = 32\nvalue = [21, 11]"] ;
1148 -> 1150 ;
1151 [label="X[0] <= 62.0\ngini = 0.42\nsamples = 30\nvalue = [21, 9]"] ;
1150 -> 1151 ;
1152 [label="X[10] <= 213.5\ngini = 0.4\nsamples = 29\nvalue = [21, 8]"] ;
1151 -> 1152 ;
1153 [label="X[10] <= 201.0\ngini = 0.231\nsamples = 15\nvalue = [13, 2]"] ;
1152 -> 1153 ;
1154 [label="X[5] <= 1.0\ngini = 0.5\nsamples = 2\nvalue = [1, 1]"] ;
1153 -> 1154 ;
1155 [label="gini = 0.0\nsamples = 1\nvalue = [0, 1]"] ;
1154 -> 1155 ;
1156 [label="gini = 0.0\nsamples = 1\nvalue = [1, 0]"] ;
1154 -> 1156 ;
1157 [label="X[0] <= 42.0\ngini = 0.142\nsamples = 13\nvalue = [12, 1]"] ;
1153 -> 1157 ;
1158 [label="gini = 0.0\nsamples = 9\nvalue = [9, 0]"] ;
1157 -> 1158 ;
1159 [label="X[0] <= 46.0\ngini = 0.375\nsamples = 4\nvalue = [3, 1]"] ;
1157 -> 1159 ;
1160 [label="gini = 0.0\nsamples = 1\nvalue = [0, 1]"] ;
1159 -> 1160 ;
1161 [label="gini = 0.0\nsamples = 3\nvalue = [3, 0]"] ;
1159 -> 1161 ;
1162 [label="X[9] <= 1.5\ngini = 0.49\nsamples = 14\nvalue = [8, 6]"] ;
1152 -> 1162 ;
1163 [label="X[0] <= 27.0\ngini = 0.375\nsamples = 4\nvalue = [1, 3]"] ;
1162 -> 1163 ;
1164 [label="gini = 0.0\nsamples = 1\nvalue = [1, 0]"] ;
1163 -> 1164 ;
1165 [label="gini = 0.0\nsamples = 3\nvalue = [0, 3]"] ;
1163 -> 1165 ;
1166 [label="X[0] <= 30.5\ngini = 0.42\nsamples = 10\nvalue = [7, 3]"] ;
1162 -> 1166 ;
1167 [label="X[18] <= 1.261\ngini = 0.444\nsamples = 3\nvalue = [1, 2]"] ;
1166 -> 1167 ;
1168 [label="gini = 0.0\nsamples = 2\nvalue = [0, 2]"] ;
1167 -> 1168 ;
1169 [label="gini = 0.0\nsamples = 1\nvalue = [1, 0]"] ;
1167 -> 1169 ;
1170 [label="X[1] <= 1.5\ngini = 0.245\nsamples = 7\nvalue = [6, 1]"] ;
1166 -> 1170 ;
1171 [label="gini = 0.0\nsamples = 4\nvalue = [4, 0]"] ;
1170 -> 1171 ;
1172 [label="X[10] <= 220.5\ngini = 0.444\nsamples = 3\nvalue = [2, 1]"] ;
1170 -> 1172 ;
1173 [label="gini = 0.0\nsamples = 1\nvalue = [1, 0]"] ;
1172 -> 1173 ;
1174 [label="X[9] <= 2.5\ngini = 0.5\nsamples = 2\nvalue = [1, 1]"] ;
1172 -> 1174 ;
1175 [label="gini = 0.0\nsamples = 1\nvalue = [1, 0]"] ;
1174 -> 1175 ;
1176 [label="gini = 0.0\nsamples = 1\nvalue = [0, 1]"] ;
1174 -> 1176 ;
1177 [label="gini = 0.0\nsamples = 1\nvalue = [0, 1]"] ;
1151 -> 1177 ;
1178 [label="gini = 0.0\nsamples = 2\nvalue = [0, 2]"] ;
1150 -> 1178 ;
1179 [label="X[18] <= 0.881\ngini = 0.32\nsamples = 25\nvalue = [5, 20]"] ;
1135 -> 1179 ;
1180 [label="gini = 0.0\nsamples = 1\nvalue = [1, 0]"] ;
1179 -> 1180 ;
1181 [label="X[5] <= 0.5\ngini = 0.278\nsamples = 24\nvalue = [4, 20]"] ;
1179 -> 1181 ;
1182 [label="gini = 0.0\nsamples = 8\nvalue = [0, 8]"] ;
1181 -> 1182 ;
1183 [label="X[10] <= 249.5\ngini = 0.375\nsamples = 16\nvalue = [4, 12]"] ;
1181 -> 1183 ;
1184 [label="X[5] <= 1.5\ngini = 0.32\nsamples = 15\nvalue = [3, 12]"] ;
1183 -> 1184 ;
1185 [label="gini = 0.0\nsamples = 1\nvalue = [1, 0]"] ;
1184 -> 1185 ;
1186 [label="X[9] <= 1.5\ngini = 0.245\nsamples = 14\nvalue = [2, 12]"] ;
1184 -> 1186 ;
1187 [label="X[10] <= 244.0\ngini = 0.444\nsamples = 6\nvalue = [2, 4]"] ;
1186 -> 1187 ;
1188 [label="gini = 0.0\nsamples = 3\nvalue = [0, 3]"] ;
1187 -> 1188 ;
1189 [label="X[3] <= 4.0\ngini = 0.444\nsamples = 3\nvalue = [2, 1]"] ;
1187 -> 1189 ;
1190 [label="gini = 0.0\nsamples = 1\nvalue = [0, 1]"] ;
1189 -> 1190 ;
1191 [label="gini = 0.0\nsamples = 2\nvalue = [2, 0]"] ;
1189 -> 1191 ;
1192 [label="gini = 0.0\nsamples = 8\nvalue = [0, 8]"] ;
1186 -> 1192 ;
1193 [label="gini = 0.0\nsamples = 1\nvalue = [1, 0]"] ;
1183 -> 1193 ;
1194 [label="X[10] <= 222.5\ngini = 0.466\nsamples = 81\nvalue = [51, 30]"] ;
1106 -> 1194 ;
1195 [label="X[0] <= 26.5\ngini = 0.5\nsamples = 43\nvalue = [22, 21]"] ;
1194 -> 1195 ;
1196 [label="X[17] <= -32.5\ngini = 0.298\nsamples = 11\nvalue = [2, 9]"] ;
1195 -> 1196 ;
1197 [label="X[1] <= 8.5\ngini = 0.18\nsamples = 10\nvalue = [1, 9]"] ;
1196 -> 1197 ;
1198 [label="gini = 0.0\nsamples = 8\nvalue = [0, 8]"] ;
1197 -> 1198 ;
1199 [label="X[10] <= 207.0\ngini = 0.5\nsamples = 2\nvalue = [1, 1]"] ;
1197 -> 1199 ;
1200 [label="gini = 0.0\nsamples = 1\nvalue = [0, 1]"] ;
1199 -> 1200 ;
1201 [label="gini = 0.0\nsamples = 1\nvalue = [1, 0]"] ;
1199 -> 1201 ;
1202 [label="gini = 0.0\nsamples = 1\nvalue = [1, 0]"] ;
1196 -> 1202 ;
1203 [label="X[18] <= 1.032\ngini = 0.469\nsamples = 32\nvalue = [20, 12]"] ;
1195 -> 1203 ;
1204 [label="X[1] <= 8.5\ngini = 0.494\nsamples = 18\nvalue = [8, 10]"] ;
1203 -> 1204 ;
1205 [label="X[1] <= 6.5\ngini = 0.32\nsamples = 5\nvalue = [4, 1]"] ;
1204 -> 1205 ;
1206 [label="gini = 0.0\nsamples = 1\nvalue = [0, 1]"] ;
1205 -> 1206 ;
1207 [label="gini = 0.0\nsamples = 4\nvalue = [4, 0]"] ;
1205 -> 1207 ;
1208 [label="X[3] <= 6.5\ngini = 0.426\nsamples = 13\nvalue = [4, 9]"] ;
1204 -> 1208 ;
1209 [label="X[11] <= 4.5\ngini = 0.375\nsamples = 12\nvalue = [3, 9]"] ;
1208 -> 1209 ;
1210 [label="X[5] <= 0.5\ngini = 0.298\nsamples = 11\nvalue = [2, 9]"] ;
1209 -> 1210 ;
1211 [label="X[19] <= 5046.85\ngini = 0.444\nsamples = 6\nvalue = [2, 4]"] ;
1210 -> 1211 ;
1212 [label="X[3] <= 5.5\ngini = 0.444\nsamples = 3\nvalue = [2, 1]"] ;
1211 -> 1212 ;
1213 [label="gini = 0.0\nsamples = 2\nvalue = [2, 0]"] ;
1212 -> 1213 ;
1214 [label="gini = 0.0\nsamples = 1\nvalue = [0, 1]"] ;
1212 -> 1214 ;
1215 [label="gini = 0.0\nsamples = 3\nvalue = [0, 3]"] ;
1211 -> 1215 ;
1216 [label="gini = 0.0\nsamples = 5\nvalue = [0, 5]"] ;
1210 -> 1216 ;
1217 [label="gini = 0.0\nsamples = 1\nvalue = [1, 0]"] ;
1209 -> 1217 ;
1218 [label="gini = 0.0\nsamples = 1\nvalue = [1, 0]"] ;
1208 -> 1218 ;
1219 [label="X[9] <= 0.5\ngini = 0.245\nsamples = 14\nvalue = [12, 2]"] ;
1203 -> 1219 ;
1220 [label="X[10] <= 204.5\ngini = 0.5\nsamples = 2\nvalue = [1, 1]"] ;
1219 -> 1220 ;
1221 [label="gini = 0.0\nsamples = 1\nvalue = [1, 0]"] ;
1220 -> 1221 ;
1222 [label="gini = 0.0\nsamples = 1\nvalue = [0, 1]"] ;
1220 -> 1222 ;
1223 [label="X[0] <= 29.0\ngini = 0.153\nsamples = 12\nvalue = [11, 1]"] ;
1219 -> 1223 ;
1224 [label="X[10] <= 208.5\ngini = 0.444\nsamples = 3\nvalue = [2, 1]"] ;
1223 -> 1224 ;
1225 [label="gini = 0.0\nsamples = 2\nvalue = [2, 0]"] ;
1224 -> 1225 ;
1226 [label="gini = 0.0\nsamples = 1\nvalue = [0, 1]"] ;
1224 -> 1226 ;
1227 [label="gini = 0.0\nsamples = 9\nvalue = [9, 0]"] ;
1223 -> 1227 ;
1228 [label="X[17] <= -50.15\ngini = 0.361\nsamples = 38\nvalue = [29, 9]"] ;
1194 -> 1228 ;
1229 [label="gini = 0.0\nsamples = 2\nvalue = [0, 2]"] ;
1228 -> 1229 ;
1230 [label="X[3] <= 2.5\ngini = 0.313\nsamples = 36\nvalue = [29, 7]"] ;
1228 -> 1230 ;
1231 [label="X[0] <= 32.0\ngini = 0.444\nsamples = 3\nvalue = [1, 2]"] ;
1230 -> 1231 ;
1232 [label="gini = 0.0\nsamples = 1\nvalue = [1, 0]"] ;
1231 -> 1232 ;
1233 [label="gini = 0.0\nsamples = 2\nvalue = [0, 2]"] ;
1231 -> 1233 ;
1234 [label="X[11] <= 3.5\ngini = 0.257\nsamples = 33\nvalue = [28, 5]"] ;
1230 -> 1234 ;
1235 [label="X[18] <= 0.871\ngini = 0.18\nsamples = 30\nvalue = [27, 3]"] ;
1234 -> 1235 ;
1236 [label="X[5] <= 1.0\ngini = 0.397\nsamples = 11\nvalue = [8, 3]"] ;
1235 -> 1236 ;
1237 [label="gini = 0.0\nsamples = 7\nvalue = [7, 0]"] ;
1236 -> 1237 ;
1238 [label="X[16] <= 92.405\ngini = 0.375\nsamples = 4\nvalue = [1, 3]"] ;
1236 -> 1238 ;
1239 [label="gini = 0.0\nsamples = 3\nvalue = [0, 3]"] ;
1238 -> 1239 ;
1240 [label="gini = 0.0\nsamples = 1\nvalue = [1, 0]"] ;
1238 -> 1240 ;
1241 [label="gini = 0.0\nsamples = 19\nvalue = [19, 0]"] ;
1235 -> 1241 ;
1242 [label="X[10] <= 240.0\ngini = 0.444\nsamples = 3\nvalue = [1, 2]"] ;
1234 -> 1242 ;
1243 [label="gini = 0.0\nsamples = 2\nvalue = [0, 2]"] ;
1242 -> 1243 ;
1244 [label="gini = 0.0\nsamples = 1\nvalue = [1, 0]"] ;
1242 -> 1244 ;
1245 [label="X[8] <= 1.5\ngini = 0.439\nsamples = 43\nvalue = [29, 14]"] ;
1069 -> 1245 ;
1246 [label="X[18] <= 0.84\ngini = 0.408\nsamples = 7\nvalue = [2, 5]"] ;
1245 -> 1246 ;
1247 [label="gini = 0.0\nsamples = 1\nvalue = [1, 0]"] ;
1246 -> 1247 ;
1248 [label="X[9] <= 1.5\ngini = 0.278\nsamples = 6\nvalue = [1, 5]"] ;
1246 -> 1248 ;
1249 [label="gini = 0.0\nsamples = 3\nvalue = [0, 3]"] ;
1248 -> 1249 ;
1250 [label="X[9] <= 2.5\ngini = 0.444\nsamples = 3\nvalue = [1, 2]"] ;
1248 -> 1250 ;
1251 [label="gini = 0.0\nsamples = 1\nvalue = [1, 0]"] ;
1250 -> 1251 ;
1252 [label="gini = 0.0\nsamples = 2\nvalue = [0, 2]"] ;
1250 -> 1252 ;
1253 [label="X[10] <= 234.5\ngini = 0.375\nsamples = 36\nvalue = [27, 9]"] ;
1245 -> 1253 ;
1254 [label="X[0] <= 49.5\ngini = 0.436\nsamples = 28\nvalue = [19, 9]"] ;
1253 -> 1254 ;
1255 [label="X[10] <= 228.5\ngini = 0.495\nsamples = 20\nvalue = [11, 9]"] ;
1254 -> 1255 ;
1256 [label="X[0] <= 32.5\ngini = 0.457\nsamples = 17\nvalue = [11, 6]"] ;
1255 -> 1256 ;
1257 [label="X[18] <= 0.714\ngini = 0.5\nsamples = 10\nvalue = [5, 5]"] ;
1256 -> 1257 ;
1258 [label="gini = 0.0\nsamples = 2\nvalue = [2, 0]"] ;
1257 -> 1258 ;
1259 [label="X[11] <= 2.0\ngini = 0.469\nsamples = 8\nvalue = [3, 5]"] ;
1257 -> 1259 ;
1260 [label="X[0] <= 28.5\ngini = 0.48\nsamples = 5\nvalue = [3, 2]"] ;
1259 -> 1260 ;
1261 [label="gini = 0.0\nsamples = 3\nvalue = [3, 0]"] ;
1260 -> 1261 ;
1262 [label="gini = 0.0\nsamples = 2\nvalue = [0, 2]"] ;
1260 -> 1262 ;
1263 [label="gini = 0.0\nsamples = 3\nvalue = [0, 3]"] ;
1259 -> 1263 ;
1264 [label="X[0] <= 48.5\ngini = 0.245\nsamples = 7\nvalue = [6, 1]"] ;
1256 -> 1264 ;
1265 [label="gini = 0.0\nsamples = 6\nvalue = [6, 0]"] ;
1264 -> 1265 ;
1266 [label="gini = 0.0\nsamples = 1\nvalue = [0, 1]"] ;
1264 -> 1266 ;
1267 [label="gini = 0.0\nsamples = 3\nvalue = [0, 3]"] ;
1255 -> 1267 ;
1268 [label="gini = 0.0\nsamples = 8\nvalue = [8, 0]"] ;
1254 -> 1268 ;
1269 [label="gini = 0.0\nsamples = 8\nvalue = [8, 0]"] ;
1253 -> 1269 ;
1270 [label="X[18] <= 0.882\ngini = 0.452\nsamples = 136\nvalue = [89, 47]"] ;
1068 -> 1270 ;
1271 [label="X[10] <= 203.5\ngini = 0.492\nsamples = 89\nvalue = [50, 39]"] ;
1270 -> 1271 ;
1272 [label="gini = 0.0\nsamples = 7\nvalue = [7, 0]"] ;
1271 -> 1272 ;
1273 [label="X[10] <= 230.5\ngini = 0.499\nsamples = 82\nvalue = [43, 39]"] ;
1271 -> 1273 ;
